tree
version=v4
num_class=1
num_tree_per_iteration=1
label_index=0
max_feature_idx=146
objective=binary sigmoid:1
feature_names=stock_id seconds_in_bucket imbalance_size imbalance_buy_sell_flag reference_price matched_size far_price near_price bid_price bid_size ask_price ask_size wap volume mid_price liquidity_imbalance matched_imbalance size_imbalance reference_price_far_price_imb reference_price_near_price_imb reference_price_ask_price_imb reference_price_bid_price_imb reference_price_wap_imb far_price_near_price_imb far_price_ask_price_imb far_price_bid_price_imb far_price_wap_imb near_price_ask_price_imb near_price_bid_price_imb near_price_wap_imb ask_price_bid_price_imb ask_price_wap_imb bid_price_wap_imb ask_price_bid_price_wap_imb2 ask_price_bid_price_reference_price_imb2 ask_price_wap_reference_price_imb2 bid_price_wap_reference_price_imb2 matched_size_bid_size_ask_size_imb2 matched_size_bid_size_imbalance_size_imb2 matched_size_ask_size_imbalance_size_imb2 bid_size_ask_size_imbalance_size_imb2 stock_weights weighted_wap wap_momentum imbalance_momentum price_spread spread_intensity price_pressure market_urgency depth_pressure spread_depth_ratio mid_price_movement micro_price relative_spread all_prices_mean all_sizes_mean all_prices_std all_sizes_std all_prices_skew all_sizes_skew all_prices_kurt all_sizes_kurt matched_size_shift_1 matched_size_ret_1 matched_size_shift_2 matched_size_ret_2 matched_size_shift_3 matched_size_ret_3 matched_size_shift_5 matched_size_ret_5 matched_size_shift_10 matched_size_ret_10 imbalance_size_shift_1 imbalance_size_ret_1 imbalance_size_shift_2 imbalance_size_ret_2 imbalance_size_shift_3 imbalance_size_ret_3 imbalance_size_shift_5 imbalance_size_ret_5 imbalance_size_shift_10 imbalance_size_ret_10 reference_price_shift_1 reference_price_ret_1 reference_price_shift_2 reference_price_ret_2 reference_price_shift_3 reference_price_ret_3 reference_price_shift_5 reference_price_ret_5 reference_price_shift_10 reference_price_ret_10 imbalance_buy_sell_flag_shift_1 imbalance_buy_sell_flag_ret_1 imbalance_buy_sell_flag_shift_2 imbalance_buy_sell_flag_ret_2 imbalance_buy_sell_flag_shift_3 imbalance_buy_sell_flag_ret_3 imbalance_buy_sell_flag_shift_5 imbalance_buy_sell_flag_ret_5 imbalance_buy_sell_flag_shift_10 imbalance_buy_sell_flag_ret_10 ask_price_diff_1 ask_price_diff_2 ask_price_diff_3 ask_price_diff_5 ask_price_diff_10 bid_price_diff_1 bid_price_diff_2 bid_price_diff_3 bid_price_diff_5 bid_price_diff_10 ask_size_diff_1 ask_size_diff_2 ask_size_diff_3 ask_size_diff_5 ask_size_diff_10 bid_size_diff_1 bid_size_diff_2 bid_size_diff_3 bid_size_diff_5 bid_size_diff_10 wap_diff_1 wap_diff_2 wap_diff_3 wap_diff_5 wap_diff_10 near_price_diff_1 near_price_diff_2 near_price_diff_3 near_price_diff_5 near_price_diff_10 far_price_diff_1 far_price_diff_2 far_price_diff_3 far_price_diff_5 far_price_diff_10 dow dom seconds minute global_median_size global_std_size global_ptp_size global_median_price global_std_price global_ptp_price
feature_infos=[0:199] [0:540] [0:1644603440.8399999] [-1:1] [0.967171:1.0673790000000001] [7514.5699999999997:6662589453.96] [0.70842499999999997:1.6579029999999999] [0.89315999999999995:1.3097319999999999] [0.967171:1.05863] [0.56000000000000005:23006100] [0.96752199999999999:1.0673790000000001] [0.58999999999999997:16859728] [0.96751699999999996:1.0651010000000001] [21.919999999999998:23183951.379999999] [0.9673465:1.0630044999999999] [-0.99993577280703583:0.99983137696382329] [-1:0.89710110761730344] [3.2114627798226888e-05:11859.775641025641] [-0.24469434884712635:0.17015012091788659] [-0.13106159329238221:0.052634872452456391] [-0.0058939629066035734:0.0024030041787261249] [-0.0033671686092136086:0.0067531739520007676] [-0.0051630198514670484:0.0067251570967478075] [-0.16541396786650867:0.2235356196633235] [-0.17022836655309054:0.24469434884712635] [-0.17015012091788659:0.24478406463044716] [-0.17019580649752175:0.24471677658053748] [-0.053093756229256751:0.13106159329238221] [-0.052670935770165489:0.13467148004432183] [-0.052840570039960871:0.13410603983085367] [2.0061186619208586e-06:0.0067531739520007676] [0:0.0067251570967478075] [-0.0049438211280394108:0] [-8309141312500:4485585228860] [-70490341367604:58231543181900] [-8980177656978:10610480722084] [-66527173695518:73777969095582] [0.0015172217044731469:20602706916.709011] [6.2185082117763193e-05:23230129.612760175] [6.2191535084332408e-05:1749382.9420201834] [3.1864385176688015e-05:3186998160.0207782] [0.001:0.040000000000000001] [0.00098142300000000015:0.040664079999999998] [-0.031179203998601857:0.043098452641717522] [-5.0453448851910601:17.420597283609673] [4.0000000000040004e-06:0.013589000000000073] [-0.0087490000000001178:0.0093790000000001372] [0:1505591.2203890411] [-0.01347929724185648:0.0094802606939031267] [-59211.05546607991:138060.94185497015] [3.0937468484901914e-12:0.00013800182481751573] [-1:1] [0.96751742216816028:1.0650876304068919] [4.0122332993336684e-06:0.013597416800999892] [0.93937533333333334:1.1326598333333333] [11081.940000000001:1665741126.2175] [8.981462390203667e-06:0.26302442532484821] [9441.2763271652875:3331288561.8285403] [-2.4494897428058402:2.4494897427982862] [-1.9528493240963869:1.9999999999495635] [-5.9999999999999982:6.000000000031724] [-5.9999999143744276:3.9999999998318749] [16773.790000000001:6662589453.96] [-0.98918132069094955:63.44178061393599] [7514.5699999999997:6662589453.96] [-0.98946830077214432:63.567573732711608] [7514.5699999999997:6662589453.96] [-0.98946830077214432:64.440081121239132] [16773.790000000001:6662589453.96] [-0.99038894564533653:64.568424061751074] [7514.5699999999997:6651180451.4700003] [-0.99057637317974556:66.955313570379786] [0:1706161974.3099999] [-1:13231.341344887147] [0:1706161974.3099999] [-1:13231.341344887147] [0:1644603440.8399999] [-1:57278.716371543967] [0:1617843203.75] [-1:58827.865486175833] [0:1706161974.3099999] [-1:40381.389324477292] [0.967171:1.0673790000000001] [-0.024838649997142581:0.033889560377637462] [0.96752199999999999:1.0673790000000001] [-0.024838649997142581:0.033514483391592131] [0.967171:1.0673790000000001] [-0.024838649997142581:0.043859605148252268] [0.967171:1.0673790000000001] [-0.035920777463402609:0.044991152325538186] [0.96752199999999999:1.0673790000000001] [-0.035920777463402609:0.044991152325538186] [-1:1] [-2:0] [-1:1] [-2:0] [-1:1] [-2:0] [-1:1] [-2:0] [-1:1] [-2:0] [-0.025643000000000082:0.032804000000000055] [-0.025643000000000082:0.032454000000000094] [-0.025643000000000082:0.034996000000000027] [-0.033270000000000022:0.044824999999999893] [-0.033270000000000022:0.044824999999999893] [-0.024520999999999904:0.032020999999999966] [-0.024520999999999904:0.031669999999999976] [-0.024520999999999904:0.034996000000000027] [-0.032147999999999954:0.04324400000000006] [-0.032147999999999954:0.04324400000000006] [-16858919.140000001:16850032.239999998] [-16849212.039999999:16849630.25] [-16754563.199999999:16858920.100000001] [-16820899.84:16808031.359999999] [-16849616.5:16849631.25] [-12767001:22914804.629999999] [-15760774.93:22989097] [-15752422.619999999:22987225.559999999] [-22924176.93:22986205.32] [-22991068.199999999:22987061.120000001] [-0.027217999999999964:0.03248300000000004] [-0.027182000000000039:0.032140999999999975] [-0.027123000000000008:0.037236000000000047] [-0.032084999999999919:0.041318999999999995] [-0.034919000000000033:0.044856000000000007] [-0.078583999999999987:0.083407000000000009] [-0.10498799999999986:0.097598999999999991] [-0.148733:0.09825600000000001] [-0.148733:0.10041599999999995] [-0.20939400000000008:0.10041599999999995] [-0.60150999999999999:0.24655499999999997] [-0.62786299999999984:0.26241700000000001] [-0.64917399999999992:0.27600599999999997] [-0.43745000000000012:0.28792300000000004] [-0.43745000000000012:0.289215] [0:4] [0:19] [0:50] [0:9] [4035.0149999999999:532201.92999999993] [33313.210111550768:1474463.8106514646] [129985.29000000001:23005929.579999998] [1.997795:2.0011605000000001] [0.0019440067482250074:0.021359221469750764] [0.0050519999999999454:0.072118999999999933]
tree_sizes=3593 3589 3593 3579 3576 3601 3597 3589 3595 3577 3576 3583 3578 3612 3591 3582 3591 3608 3593 3603 3576 3577 3574 3594 3577 3600 3595 3590 3592 3570 3583 3587 3601 3559 3591 3580 3561 3593 3581 3577 3609 3589 3576 3591 3554 3582 3596 3572 3550 3526 3601 3576 3557 3571 3545 3579 3578 3563 3592 3599 3562 3564 3591 3569 3582 3574 3598 3562 3600 3555 3574 3576 3555 3577 3602 3566 3512 3600 3570 3479 3553 3570 3581 3521 3573 3566 3469 3615 3498 3561 3576 3534 3555 3567 3497 3552 3614 3600 3613 3504 3509 3576 3507 3593 3547 3510 3505 3473 3466 3561 3539 3581 3560 3590 3510 3549 3518 3585 3522 3539 3576 3552 3482 3549 3497 3515 3511 3522 3568 3495 3465 3474 3565 3581 3561 3602 3501 3559 3522 3503 3583 3626 3486 3541 3487 3557 3582 3560 3497 3517 3518 3523 3546 3516 3555 3544 3519 3580 3504 3496 3541 3528 3563 3485 3496 3516 3481 3569 3502 3517 3470 3565 3556 3512 3558 3507 3527 3466 3568 3514 3558 3516 3523 3531 3473 3512 3471 3496 3482 3488 3565 3513 3564 3473 3490 3564 3529 3569 3494 3525 3517 3565 3592 3522 3497 3569 3508 3560 3537 3468 3502 3516 3498 3548 3574 3517 3558 3491 3502 3508 3483 3546 3524 3522 3580 3504 3514 3571 3488 3479 3533 3493 3532 3631 3458 3569 3536 3496 3482 3536 3456 3487 3448 3549 3489 3508 3473 3498 3500 3532 3470 3508 3499 3528 3556 3555 3504 3443 3566 3530 3552 3507 3522 3484 3512 3559 3480 3522 3542 3535 3515 3518 3519 3518 3569 3614 3484 3467 3491 3537 3530 3547 3561 3499 3526 3484 3467 3556 3484 3464 3526 3475 3514 3458 3585 3523 3459 3491 3502 3542 3526 3507 3496 3542 3529 3516 3519 3470 3442 3535 3544 3489 3449 3464 3549 3495 3531 3456 3470 3501 3481 3485 3529 3553 3522 3532 3580 3505 3484 3513 3535 3476 3546 3506 3539 3446 3488 3566 3501 3505 3529 3544 3465 3482 3507 3505 3521 3527 3523 3505 3525 3449 3518 3510 3524 3496 3457 3499 3454 3500 3570 3425 3524 3489 3481 3523 3541 3568 3537 3475 3468 3518 3543 3464 3526 3546 3499 3506 3471 3470 3481 3515 3537 3498 3472 3525 3561 3494 3508 3431 3509 3488 3509 3507 3475 3559 3484 3464 3476 3437 3539 3496 3524 3480 3499 3461 3551 3536 3506 3559 3484 3516 3484 3515 3511 3530 3497 3514 3463 3542 3504 3427 3503 3438 3512 3492 3483 3399 3471 3461 3535 3530 3542 3511 3502 3514 3520 3491 3460 3482 3568 3519 3538 3505 3499 3453 3436 3505 3444 3482 3497 3450 3486 3518 3484 3463 3461 3454 3488 3574 3504 3494 3506 3543 3541 3527 3495 3568 3518 3555 3481 3582 3517 3531 3452 3479 3476 3503 3519 3494 3550 3508 3496 3489 3521 3537 3519 3460 3455 3460 3503 3556 3535 3494 3518 3495 3479 3542 3563 3527 3547 3439 3556 3565 3500 3503 3459 3549 3486 3489 3475 3437 3528 3521 3460 3524 3506 3517 3521 3454 3486 3498 3458 3533 3486 3439 3510 3451 3505 3529 3533 3527 3468 3426 3505 3481 3492 3538 3530 3501 3521 3556 3482 3492 3475 3563 3441 3491 3510 3450 3517 3447 3521 3555 3499 3517 3499 3461 3500 3502 3527 3454 3478 3479 3553 3498 3516 3496 3460 3471 3483 3510 3481 3454 3539 3492 3468 3512 3503 3540 3501 3548 3456 3463 3509 3510 3518 3468 3448 3474 3436 3530 3517 3515 3452 3541 3524 3446 3553 3498 3451 3491 3498 3515 3498 3533 3537 3486 3549 3511 3514 3453 3477 3537 3512 3476 3557 3516 3453 3518 3569 3541 3450 3504 3516 3488 3455 3510 3508 3461 3472 3511 3472 3519 3532 3514 3507 3470 3508 3540 3476 3457 3492 3488 3464 3490 3499 3478 3536 3486 3484 3504 3544 3556 3446 3504 3496 3504 3522 3509 3528 3535 3527 3457 3466 3543 3506 3526 3489 3458 3523 3506 3450 3482 3462 3492 3520 3458 3485 3541 3508 3476 3500 3502 3439 3473 3495 3481 3451 3456 3537 3514 3484 3485 3439 3525 3454 3515 3503 3483 3530 3531 3525 3522 3550 3424 3469 3492 3506 3450 3442 3544 3493 3501 3507 3494 3492 3492 3487 3539 3537 3530 3513 3513 3462 3524 3527 3528 3441 3486 3478 3502 3539 3513 3462 3545 3517 3504 3500 3503 3539 3540 3497 3523 3524 3522 3467 3532 3486 3513 3531 3484 3479 3498 3506 3492 3546 3441 3495 3442 3471 3530 3554 3509 3531 3462 3475 3484 3546 3515 3423 3454 3479 3506 3495 3472 3494 3515 3460 3524 3474 3468 3533 3472 3516 3459 3476 3480 3443 3441 3431 3480 3487 3531 3523 3503 3477 3502 3454 3472 3475 3467 3516 3528 3514 3545 3536 3541 3522 3534 3496 3491 3484 3464 3467 3467 3538 3516 3531 3503 3498 3489 3461 3479 3499 3483 3448 3496 3449 3476 3560 3454 3455 3496 3483 3495 3553 3450 3484 3469 3485 3469 3439 3447 3452 3454 3499 3462 3540 3549 3482 3476 3524 3507 3502 3486 3482 3500 3538 3473 3471 3483 3548 3508 3440 3435 3441 3487 3500 3492 3530 3488 3448 3479 3488 3503 3503 3465 3467 3521 3510 3499 3520 3498 3440 3541 3498 3468 3494 3493 3524 3474 3475 3531 3538 3448 3476 3456 3476 3432 3508 3500 3529 3482 3503 3478 3531 3515 3518 3510 3513 3457 3532 3525 3459 3521 3528 3505 3537 3496 3547 3453 3463 3488 3517 3521 3541 3482 3514 3479 3488 3485 3452 3511 3483 3563 3513 3508 3504 3510 3552 3498 3477 3492 3503 3515 3484 3466 3476 3521 3518 3478 3496 3459 3486 3549 3451 3526 3520 3520 3467 3455 3492 3431 3572 3520 3505 3484 3507 3467 3447 3459 3500 3493 3513 3543 3497 3510 3528 3519 3524 3504 3517 3492 3474 3507 3476 3431 3477 3513 3545 3513 3499 3532 3462 3515 3509 3530 3433 3504

Tree=0
num_leaves=31
num_cat=0
split_feature=48 33 22 53 141 144 48 144 15 83 4 48 55 103 144 131 90 48 144 29 136 21 22 144 29 1 50 61 34 36
split_gain=1778 690.7 338.141 249.783 189.79 187.959 173.853 101.642 83.9467 72.9696 71.9696 69.9217 51.9514 55.9703 50.4105 49.6359 49.4778 48.8134 47.526 48.4612 49.2038 45.6889 45.6658 43.1528 42.256 42.0296 41.4882 41.233 38.178 37.6169
threshold=8.1619811385368689e-05 3.2000000000333073 -9.4601420774277317e-05 0.00042824645583805244 145031.89500000002 1.9990355000000004 0.00056770222072316371 1.9997617500000002 -0.14411378553912385 4.406135543832957e-05 0.99849950000000021 0.00024063000177157717 36309293.357500009 -0.00012200000000001097 1.9996610000000001 -0.0037899999999999596 1.0012055000000002 0.00021520204341297393 1.9992157500000003 -0.014214973945568494 0.01251550000000007 8.0551270884251372e-05 2.3481168106798458e-05 1.9989022500000002 0.00043311481471799035 365.00000000000006 1.167634476852799e-08 3.7870183943580717 0.073529411765007519 3.3132820744704303
decision_type=2 10 2 2 2 2 2 2 2 10 2 2 2 10 2 8 10 2 2 8 10 2 2 2 8 2 2 2 10 8
left_child=1 5 4 18 6 10 17 11 21 23 -1 15 13 -10 -6 -4 29 -2 25 -20 -21 27 -9 -5 -24 -3 -23 -7 -13 -15
right_child=2 3 7 9 14 8 -8 22 12 -11 -12 28 -14 16 -16 -17 -18 -19 19 20 -22 26 24 -25 -26 -27 -28 -29 -30 -31
leaf_value=-0.036466618185032183 -0.051140829799135805 -0.038933563903678269 -0.027422374799367703 -0.030453680529606925 -0.055904789047595882 -0.03812892859508614 -0.077058129494744054 -0.04410152817928531 -0.033628999596200762 -0.0073211399654428966 -0.047981499185489114 -0.048454399068458151 -0.030475550435004141 -0.040554469888088827 -0.029662217166066519 -0.046258119417499903 -0.031762162401556236 -0.061565133375929726 -0.054970912207472855 -0.024626676232670494 -0.041965110975899653 -0.031234686382117016 -0.048336521286245514 -0.016798918431581308 -0.028907894378686343 -0.025950287290440868 -0.021113934063832097 -0.030253295173931594 -0.059622955577907699 -0.04919917861640883
leaf_weight=1975.2962718009949 1845.3425697088242 1723.8858404457569 373.36698254942894 712.24625185132027 259.4075822532177 3205.1081333309412 1493.9677521288395 1686.3991956114769 3755.4120794981718 1882.5793035775423 4334.9556086361408 1444.9852028787136 2331.1694867610931 4988.9726055115461 621.27866038680077 5531.7792227119207 1214.3173816651106 2868.9778846502304 145.19827099144459 6200.7908775210381 438.09392262995243 2703.0370035171509 346.6265092343092 3083.651404067874 1452.9823537766933 976.40214245021343 1619.1731458753347 3451.7702563405037 1626.4205638766289 1682.9004420936108
leaf_count=7904 7384 6898 1494 2850 1038 12825 5978 6748 15027 7533 17346 5782 9328 19963 2486 22135 4859 11480 581 24812 1753 10816 1387 12339 5814 3907 6479 13812 6508 6734
internal_value=-0.0377469 -0.0324202 -0.0503951 -0.0236632 -0.0591135 -0.0366676 -0.0621949 -0.0454358 -0.0347179 -0.0153695 -0.044377 -0.0482497 -0.0372887 -0.038653 -0.037392 -0.0450672 -0.0410454 -0.0574847 -0.0286288 -0.0263958 -0.0257708 -0.0314462 -0.0381899 -0.019361 -0.0326501 -0.0342389 -0.0274433 -0.0340452 -0.0543686 -0.042735
internal_weight=0 46425 19551.5 15162.8 7088.97 31262.1 6208.29 12462.6 24951.9 5678.48 6310.25 8976.55 13972.8 11641.6 880.686 5905.15 7886.19 4714.32 9484.37 6784.08 6638.88 10979.1 3486.01 3795.9 1799.61 2700.29 4322.21 6656.88 3071.41 6671.87
internal_count=264000 185766 78234 60673 28366 125093 24842 49868 99843 22722 25250 35919 55911 46583 3524 23629 31556 18864 37951 27146 26565 43932 13949 15189 7201 10805 17295 26637 12290 26697
is_linear=0
shrinkage=1


Tree=1
num_leaves=31
num_cat=0
split_feature=48 22 48 11 141 141 48 144 22 48 98 144 48 75 130 67 53 9 144 142 105 80 124 80 62 131 89 37 22 111
split_gain=1610.42 473.789 453.508 179.589 174.509 169.895 166.719 146.791 122.216 87.3604 86.4763 75.8079 66.7821 56.7509 51.2691 47.2718 46.5444 46.0744 44.2129 43.1767 42.2059 42.5021 42.0717 41.1953 47.2821 40.4788 38.6221 36.8591 36.5159 35.2647
threshold=1.1939739866298141e-05 -0.00010163064621288094 -0.00025397376632121628 9446.215000000002 74793.215000000011 145031.89500000002 0.00056770222072316371 1.9991870000000003 1.0000000180025095e-35 0.00021520204341297393 1.0000000180025095e-35 1.9994035000000003 -8.5530367168828696e-05 -0.067824548855416208 0.00026749999999997614 0.12488548024901881 0.001543831775226155 185758.39500000002 1.99890425 93694.590581286277 0.00017099999999997675 16339248.410000002 0.00012049999999996787 9448148.8300000019 18830508.235000003 -0.0034150000000000564 -0.0014232878343810038 5377.2312832414254 0.00022949721312118788 -1.0000000180025095e-35
decision_type=2 2 2 2 2 2 2 2 2 2 8 2 2 8 8 10 2 2 2 2 10 8 10 8 8 8 8 2 2 10
left_child=2 5 4 9 8 6 15 14 -1 -3 -10 25 -9 -12 29 -2 -7 23 -15 -16 -14 -22 -13 -6 -25 -5 -11 -24 -20 -4
right_child=1 3 7 11 17 16 -8 12 10 26 13 22 20 18 19 -17 -18 -19 28 -21 21 -23 27 24 -26 -27 -28 -29 -30 -31
leaf_value=0.0093015433666217857 -0.020239171237730107 -0.0068616121574471755 0.010962949390743696 0.008731029415961742 0.0069797383393853151 0.004278094002591883 -0.037463061285015427 0.0091873900881852578 0.029093353529759655 0.0040518470252604672 0.0044209939563158579 0.0050230283889149078 0.0055372549112126818 0.0064416983594125128 0.0010185612374969076 -0.0061215274836307065 -0.02528406922448638 -0.021441724175804117 0.019707068038569871 -0.0077202545293430444 -0.004074769861087269 0.0093495647363621408 -0.0046372470816068226 -0.072805556796241205 -0.0014494701611659059 -0.0068285891128573558 -0.019085666715781466 0.011078604243521837 0.035589037518300386 -0.0024296675415987202
leaf_weight=2213.3816924989223 4293.1082974076271 4823.2729859650135 1077.3836699873209 450.83416056632996 1660.1437261998653 834.69928988814354 1467.819955945015 8671.3258958905935 2960.1785068660975 192.37614537775517 691.16505300998688 4287.6307533979416 6778.7185045033693 425.38595275580883 2270.8503133356571 687.96992762386799 158.41850274801254 180.69798842072487 1216.3701345920563 3743.6536392569542 2766.574037104845 749.30008989572525 2792.55074454844 34.991037219762802 68.983299270272255 5738.1445484310389 2887.7916771024466 430.61642833054066 515.219985216856 903.91985103487968
leaf_count=8855 17186 19302 4311 1804 6642 3340 5880 34693 11842 770 2765 17157 27123 1702 9087 2754 634 723 4866 14981 11070 2998 11175 140 276 22964 11559 1723 2061 3617
internal_value=0 -0.00880849 0.006928 -0.00506039 0.0160415 -0.0196887 -0.0226534 0.00355915 0.0192992 -0.0110624 0.023109 -0.00159779 0.00595462 0.0168893 -0.00212285 -0.0182893 -0.000437554 0.00260455 0.0208846 -0.00442081 0.0032316 -0.00121379 0.00177848 0.0050676 -0.0254633 -0.00569515 -0.0176406 -0.0025376 0.0244326 0.00485291
internal_weight=0 29045.2 36928.2 21603.2 9966.52 7442.02 6448.9 26961.7 8021.7 7903.44 5808.32 13699.8 18965.9 2848.14 7995.81 4981.08 993.118 1944.82 2156.98 6014.5 10294.6 3515.87 7510.8 1764.12 103.974 6188.98 3080.17 3223.17 1731.59 1981.3
internal_count=264000 116248 147752 86454 39872 29794 25820 107880 32091 31631 23236 54823 75884 11394 31996 19940 3974 7781 8629 24068 41191 14068 30055 7058 416 24768 12329 12898 6927 7928
is_linear=0
shrinkage=0.05


Tree=2
num_leaves=31
num_cat=0
split_feature=33 48 141 48 22 144 141 144 48 22 100 131 22 10 16 144 16 43 144 131 16 68 145 22 16 144 54 145 80 68
split_gain=1460.29 606.31 294.979 273.394 153.339 147.375 117.544 103.89 100.101 75.6037 83.9395 69.6213 64.9673 61.9864 50.634 46.9515 45.7611 44.6644 42.7873 42.4295 46.4591 42.3872 41.9342 39.1992 41.4537 38.6372 38.1105 35.4818 35.3801 35.0941
threshold=1.5138888888872477 0.00021520204341297393 87966.645000000004 -0.00031273497855571628 -3.2162048484181352e-05 1.9993935000000003 74793.215000000011 1.9992472500000003 0.00084659888457824112 -1.0000000180025095e-35 1.0000000180025095e-35 0.0044120000000000279 -7.5432412558467781e-05 0.99879350000000011 -0.83483947059454533 2.0003125000000002 -0.55568791039006549 -0.00025869312335841105 1.9997685000000003 -0.0011434999999999638 -0.81117061992936856 1406193625.3150003 0.0031542916657155066 -1.6504670822179611e-05 -0.79696692087207877 1.9991102500000002 0.9967670833333333 0.0049663017589414134 27388737.570000004 138728002.80500004
decision_type=8 2 2 2 2 2 2 2 2 2 8 8 2 2 2 2 2 10 2 8 2 10 2 2 2 2 2 2 8 10
left_child=1 5 4 6 8 13 9 11 -3 -2 -11 -5 15 16 27 -7 22 -14 -4 20 -15 23 -1 24 26 -21 -9 -12 -8 -19
right_child=3 2 18 7 -6 12 28 21 -10 10 14 -13 17 19 -16 -17 -18 29 -20 25 -22 -23 -24 -25 -26 -27 -28 -29 -30 -31
leaf_value=0.01047772603189903 0.01043230491045247 -0.02303080572097102 -0.0064894188691158004 0.010596721371113076 -0.011316711599479525 -0.0069554251728795495 0.0053202477153753138 0.023204502132419202 -0.042950640492583216 0.02935243661869132 0.012192342282642071 -0.0024009397830950349 0.006769547135198545 -0.0058798824865016952 0.021784802950268196 0.014256571988059036 -0.011799539830281744 -0.0010705712248531552 0.008820968880269479 -0.013027462541778518 0.019688067570737895 -0.023125145092559172 -0.0023310325518650431 0.01043251494789737 -0.00086924467840904056 -0.0063907659118880274 0.0059880299439467244 -0.011717547321573362 -0.052483215029459677 0.0075563247200767973
leaf_weight=981.74885345995426 1575.1524681597948 4665.6390947848558 883.05427192151546 1313.4231786876917 2808.467165723443 3258.9206676781178 1458.2259460091591 401.69617195427418 729.24980679154396 2502.3487578630447 606.7162521481514 4779.0185531526804 4001.0494952648878 544.79529172182083 1384.3930293023586 283.57063363492489 744.5596859306097 7091.3073064833879 944.33451935648918 4138.2149368673563 263.65798550844193 106.23514303565025 1830.2380758076906 8844.4784718304873 1902.1027364879847 4665.4121597707272 1608.7859872430563 208.48189894855022 26.961716562509537 1413.9198321551085
leaf_count=3929 6301 18696 3535 5255 11245 13044 5834 1607 2926 10010 2427 19124 16009 2180 5538 1135 2980 28377 3779 16565 1055 425 7325 35382 7610 18672 6436 834 108 5657
internal_value=0 -0.0061381 -0.0167444 0.00901628 -0.0207912 -0.00249682 0.0169201 0.0057797 -0.0257235 0.019913 0.023089 0.000401127 0.000719878 -0.00641705 0.0159635 -0.00525744 -0.000777527 0.00241299 0.00142249 -0.00850372 0.0024585 0.00832715 0.00214089 0.00858908 0.00442194 -0.0095104 0.0094279 0.00607754 0.0042709 0.000363575
internal_weight=0 39248.1 10030.7 26718 8203.36 29217.4 7762.28 18955.7 5394.89 6277.09 4701.94 6092.44 16048.8 13168.6 2199.59 3542.49 3556.55 12506.3 1827.39 9612.08 808.453 12863.3 2811.99 12757.1 3912.58 8803.63 2010.48 815.198 1485.19 8505.23
internal_count=264000 157109 40181 106891 32867 116928 31052 75839 21622 25110 18809 24379 64222 52706 8799 14179 14234 50043 7314 38472 3235 51460 11254 51035 15653 35237 8043 3261 5942 34034
is_linear=0
shrinkage=0.05


Tree=3
num_leaves=31
num_cat=0
split_feature=48 33 22 48 53 144 141 110 144 1 4 21 48 98 79 66 50 138 144 18 55 143 6 71 137 22 47 90 42 137
split_gain=1328.46 522.568 254.954 209.313 189.397 147.818 129.329 72.8958 63.5065 63.7743 60.4992 57.9903 56.6495 52.8229 61.6057 51.905 55.5869 50.6396 69.6609 43.509 67.2779 41.6631 58.3703 40.8016 51.5103 47.2897 43.7488 39.5603 38.2152 37.5799
threshold=8.1619811385368689e-05 3.2000000000333073 -6.6131597153680275e-06 0.00032490608927621974 0.00042824645583805244 1.9990355000000004 107090.71000000001 -1.0000000180025095e-35 1.9998607500000001 525.00000000000011 0.99849950000000021 1.2051005944541895e-05 0.00084659888457824112 -1.0000000180025095e-35 -0.13503664705730087 117187372.84500001 1.1893549136814834e-08 8.5000000000000018 1.9999690000000003 -0.001828091672838389 8002117.82125 2693682.6750000003 1.0090485000000002 0.054686287570033694 1.5000000000000002 -2.8588768125885246e-05 4888.4094760587404 1.0004695000000001 0.0039979060000000007 1.0000000180025095e-35
decision_type=2 10 2 2 2 2 2 8 2 2 2 2 2 8 8 8 2 2 2 10 2 2 10 10 2 2 2 10 2 2
left_child=1 5 3 29 -3 10 12 17 9 -4 -1 -6 -5 -13 -15 16 -9 18 23 20 27 22 -17 25 -25 -7 -26 -19 -22 -2
right_child=2 4 8 6 11 7 -8 15 -10 -11 -12 13 -14 14 -16 21 -18 19 -20 -21 28 -23 -24 24 26 -27 -28 -29 -30 -31
leaf_value=0.0013211180921993326 -0.0024533606157859586 0.0078947055967498441 -0.0075310910532414149 -0.024171459854476555 0.0099881985003267178 -0.008166454307315078 0.00097110472560994895 -0.0028158639634709554 0.0038568519168351227 0.021226163818309277 -0.0092374443681703146 0.029373387544318404 -0.039380569989684838 0.0044076580049336837 0.02203640789445498 0.015505907016600951 0.0053378824431644968 0.0062809803539863179 0.016090145136000291 0.013229845287100798 -0.014429914071088396 -0.0026318134653515023 -0.022366846334003244 0.0023394576388466952 -0.019453347741556385 0.0094876406558497221 0.024454921049537157 0.020116897654033506 0.0021346160265771192 -0.012012668669830093
leaf_weight=1975.1779588311911 1238.1526008248329 9486.5656133443117 5633.410530179739 3221.7711998969316 1262.2103719115257 577.54362046718597 458.90488150715828 9343.4259805381298 1959.5883668363094 199.62455275654793 4332.657493814826 1606.3228303343058 755.89579397439957 642.42763337492943 2168.1432933211327 1285.4639105945826 2692.6257562339306 1534.584064334631 644.89354649186134 2694.9329506754875 448.89099670946598 673.66008713841438 110.48077540099621 678.07061485946178 771.29524692893028 1105.2618927508593 61.233916983008385 778.83941234648228 1552.1334380805492 6060.7239942103624
leaf_count=7904 4959 37951 22555 12926 5049 2311 1837 37388 7842 799 17346 6428 3041 2570 8675 5143 10774 6140 2580 10782 1796 2695 442 2713 3086 4422 245 3116 6210 24275
internal_value=0 0.00460194 -0.0109417 -0.0155972 0.012218 0.000907186 -0.0241621 0.00263584 -0.00393072 -0.00654693 -0.00593123 0.0194397 -0.0270617 0.0221406 0.0180069 0.000265945 -0.000991762 0.0057175 0.00110095 0.0082455 0.00513212 0.0075803 0.0125085 -0.00192605 -0.00789123 0.00342871 -0.0162238 0.010939 -0.00158131 -0.0103911
internal_weight=0 46426.8 19528.1 11735.4 15165.7 31261.2 4436.57 24953.3 7792.62 5833.04 6307.84 5679.1 3977.67 4416.89 2810.57 14105.7 12036.1 10847.7 3838.3 7009.38 4314.45 2069.6 1395.94 3193.41 1510.6 1682.81 832.529 2313.42 2001.02 7298.88
internal_count=264000 185766 78234 47038 60673 125093 17804 99843 31196 23354 25250 22722 15967 17673 11245 56442 48162 43401 15357 28044 17262 8280 5585 12777 6044 6733 3331 9256 8006 29234
is_linear=0
shrinkage=0.05


Tree=4
num_leaves=31
num_cat=0
split_feature=15 22 48 11 141 141 48 144 22 100 48 144 22 73 10 79 90 71 138 137 142 144 131 65 69 146 28 146 90 144
split_gain=1212.53 366.665 341.2 150.872 136.827 131.61 121.379 119.153 95.6896 88.687 64.6433 62.7421 57.1274 61.5555 54.9234 53.342 47.5794 42.4791 46.0998 49.8529 52.4723 42.1247 42.067 41.7557 38.1088 36.8965 58.4066 36.6136 42.9371 36.4005
threshold=0.054403878788842681 -0.0001042214707842958 -0.00025397376632121628 9446.215000000002 74793.215000000011 197846.00500000003 0.00059890034944371407 1.9990355000000004 1.0000000180025095e-35 1.0000000180025095e-35 0.0003049094701808068 1.9996945000000002 -1.6504670822179611e-05 -0.25556357392681128 0.99879350000000011 -0.13070900617675521 0.99845950000000017 0.098592866250569969 8.5000000000000018 1.0000000180025095e-35 632237.09074014693 1.999878 -0.0027604999999998876 0.087882199909475781 0.014514893087797411 0.011047000000000031 0.0002229558562761249 0.033361499999999995 1.0046455000000003 1.9988645000000003
decision_type=2 2 2 2 2 2 2 2 2 8 2 2 2 8 2 10 8 10 2 2 2 2 8 10 8 2 10 2 8 2
left_child=2 5 4 10 8 6 23 14 -1 -10 21 16 13 -9 25 24 -5 -14 19 -19 -21 -3 -18 -2 -11 -4 -27 -6 -29 -17
right_child=1 3 7 11 27 -7 -8 12 9 15 -12 -13 17 -15 -16 29 22 18 -20 20 -22 -23 -24 -25 -26 26 -28 28 -30 -31
leaf_value=0.0079201630393261838 -0.018042173200072977 -0.0091762312143695377 0.010002246601448356 0.0032227295440641376 -9.7933007251287487e-05 0.0028760331195951468 -0.033096352557859997 0.015364727827714073 0.026032756718888817 0.021255219505260953 -0.017782465590871894 0.0033642507099145079 0.0086840688221721512 -5.8336282475166012e-05 -0.0072515677791517609 0.0019413032730389104 0.0063311940768826626 0.013001454741078229 0.0067638704668386415 -0.0083652394663045991 0.067733509652976448 0.0024600811419173622 -0.0068532238719740375 -0.0043649564431240441 -0.0016687218313770368 -0.0098317168154323648 0.025438726359675479 0.039225637656921615 -0.020242457064590814 0.02172264626904637
leaf_weight=2213.5637385398149 4320.6975659430027 5027.8237477689981 984.66956935822964 1925.8902521282434 1781.070513650775 704.09312704205513 1368.2722767144442 710.59684166312218 3039.7879116237164 242.69217279553413 1992.2140924334526 4687.7283400893211 8987.8810787945986 7222.0133455246687 3533.1996610015631 274.18246112763882 666.98913952708244 380.94823032617569 2999.6038779169321 1502.9612392783165 22.999105423688889 920.09078857302666 6510.3924689441919 640.79423224925995 716.6305141299963 727.43403698503971 139.95966909825802 123.49153339862823 40.245199963450432 1531.9859052747488
leaf_count=8855 17333 20135 3940 7710 7126 2818 5516 2843 12170 971 7990 18758 35956 28896 14146 1097 2669 1524 12000 6013 92 3683 26066 2569 2867 2911 560 494 161 6131
internal_value=0 -0.00770826 0.00596369 -0.00449661 0.0138799 -0.0176307 -0.0199117 0.00306521 0.0167655 0.0201382 -0.00998717 -0.00133544 0.00470863 0.00132325 -0.00359571 0.0136589 -0.00375554 0.00664141 0.00289961 -0.00317894 -0.00721829 -0.00737619 -0.005628 -0.0162757 0.00413064 0.0033786 -0.0041406 0.00198217 0.0246088 0.0187198
internal_weight=0 28765 37175.9 21731.1 9963.65 7033.86 6329.76 27212.3 8018.84 5805.28 7940.13 13791 21827 7932.61 5385.26 2765.49 9103.27 13894.4 4906.51 1906.91 1525.96 5947.91 7177.38 4961.49 959.323 1852.06 867.394 1944.81 163.737 1806.17
internal_count=264000 115247 148753 87011 39872 28236 25418 108881 32091 23236 31808 55203 87324 31739 21557 11066 36445 55585 19629 7629 6105 23818 28735 19902 3838 7411 3471 7781 655 7228
is_linear=0
shrinkage=0.05


Tree=5
num_leaves=31
num_cat=0
split_feature=15 48 141 48 22 90 141 48 110 57 11 22 21 65 30 100 16 92 21 73 136 138 73 141 138 50 60 142 71 90
split_gain=1101.45 457.07 234.264 203.364 116.708 85.8627 78.2304 77.0125 76.2735 77.0807 56.0305 54.6019 54.0446 50.0735 47.8292 52.2597 59.6426 46.6924 40.9588 40.7789 40.7746 40.6659 40.441 40.2012 38.6368 44.4249 37.3085 35.7804 37.8615 35.5959
threshold=-0.20562778217547714 0.00021520204341297393 87966.645000000004 -0.00034943774711517509 -3.3078743953642523e-05 1.0063335000000002 243656.80500000002 0.00084659888457824112 -0.00012099999999998222 72099860.234308556 7935.1050000000005 -1.6504670822179611e-05 4.4041487090774447e-05 0.074933208299229906 8.09807741088892e-05 1.0000000180025095e-35 -0.5950292586128062 -1.0000000180025095e-35 0.00020796628754323482 -0.13942049623619571 -0.0021340000000000243 8.5000000000000018 -0.080553876733707327 44142.272500000006 8.5000000000000018 1.0192386619038662e-08 -3.7411541759963067 308272.05204352184 0.051198850994288121 1.0016155000000002
decision_type=2 2 2 2 2 8 2 2 8 2 2 2 2 8 2 8 2 10 2 8 8 2 10 2 2 2 2 2 10 10
left_child=3 8 4 5 7 6 12 -3 10 18 -2 13 -1 -5 -13 16 23 -14 20 -19 -10 27 -17 -16 -4 -26 -21 28 -12 -30
right_child=1 2 24 11 -6 -7 -8 -9 9 -11 21 14 17 -15 15 22 -18 19 -20 26 -22 -23 -24 -25 25 -27 -28 -29 29 -31
leaf_value=0.010351287076988068 -0.0058880993535363113 -0.020148366330149201 -0.0077648270305273994 -0.00022059096564103469 -0.0099510042993427583 -0.017454162531411146 -0.00057840006992947396 -0.037711465348485851 0.0036975900773757891 0.0057650175857078085 0.0022283004379988623 0.0024873414072108715 0.028589572644451389 0.013826025453882057 0.019117094151952726 -0.0032939221501910552 0.002830832310662191 0.00020568579425654676 0.0013999417644764607 0.027805722801096968 -0.0068914909106926551 0.0054478822020286154 0.0077055527438783704 0.0082801645095815415 0.012247669233540388 -0.012225539739812934 0.015156727111148988 0.013139487611740764 -0.012516351458510294 0.012495450731161673
leaf_weight=1636.6469552069902 2271.7896093130112 4632.5968948155642 684.65929831564426 5493.0548341423273 2823.1078217178583 193.86272832751274 620.61491213738918 721.35436986386776 975.25506785511971 1764.4315696805716 1369.7907770425081 4055.6989454776049 1383.8505627810955 717.31191228330135 2571.3060683012009 1092.2899313569069 1221.3769527375698 307.30639845132828 2038.512724339962 884.38434308767319 13402.778399407864 5650.304955303669 3556.3976975381374 1282.6999574303627 909.26872424781322 232.93573293089867 1710.3755477368832 359.58577366173267 1198.7735055685043 161.40178687870502
leaf_count=6549 9097 18628 2741 21978 11317 776 2483 2922 3903 7060 5483 16225 5546 2870 10288 4370 4887 1230 8159 3542 53665 22614 14229 5132 3640 933 6849 1439 4799 646
internal_value=0 -0.00533723 -0.0145606 0.00782628 -0.0181771 0.0153391 0.0163107 -0.0225147 -0.00217651 -0.00416552 0.00110749 0.00529432 0.0180805 0.00140183 0.00704862 0.00895103 0.012459 0.021032 -0.00523284 0.0174282 -0.00617324 0.00292588 0.00512103 0.0155103 0.00162705 0.00725672 0.0194679 -0.00168646 -0.0036393 -0.00954839
internal_weight=0 39196.5 10003.9 26727.2 8177.06 6737.04 6543.18 5353.95 29192.6 18181 11011.6 19990.1 5922.56 6210.37 13779.8 9724.07 5075.38 4285.92 16416.5 2902.07 14378 8739.86 4648.69 3854.01 1826.86 1142.2 2594.76 3089.55 2729.97 1360.18
internal_count=264000 157046 40181 106954 32867 26975 26199 21550 116865 72787 44078 79979 23716 24848 55131 38906 20307 17167 65727 11621 57568 34981 18599 15420 7314 4573 10391 12367 10928 5445
is_linear=0
shrinkage=0.05


Tree=6
num_leaves=31
num_cat=0
split_feature=15 22 33 30 11 141 48 138 138 124 48 70 23 146 21 20 34 100 79 90 65 89 30 55 138 34 138 145 138 143
split_gain=997.546 306.843 285.635 126.677 126.308 110.797 99.9472 67.8833 58.9958 56.2587 56.1748 53.9426 58.4829 50.6141 47.8085 46.1248 45.3878 43.8019 52.9266 39.8616 39.0269 38.175 37.3749 37.1468 37.1218 45.7873 41.9447 36.4822 42.7007 41.8547
threshold=0.054403878788842681 -0.0001042214707842958 4.105263157884302 0.00020542656000558906 9674.5500000000011 145031.89500000002 0.00056770222072316371 8.5000000000000018 1.5000000000000002 0.00023399999999990098 0.00021520204341297393 107832651.87000002 -0.0043546160069010123 0.011216499999999909 1.2051005944541895e-05 -0.00066804719586391022 7.9336477987504468 1.0000000180025095e-35 -0.08340165071201365 1.0042985000000002 0.087882199909475781 -0.0014232878343810038 0.00077712759809513631 1928926.4987500003 8.5000000000000018 0.24693857150119305 9.5000000000000018 0.0038992782261189226 9.5000000000000018 2381107.3250000007
decision_type=2 2 10 2 2 2 2 2 2 10 2 10 10 2 2 2 10 8 10 8 10 8 2 2 2 10 2 2 2 2
left_child=2 5 7 -4 10 6 20 8 -1 24 -3 12 13 -10 -5 -14 19 -16 -19 27 -2 -12 -7 -15 -6 26 -26 28 29 -9
right_child=1 4 3 14 9 22 -8 16 11 -11 21 -13 15 23 17 -17 -18 18 -20 -21 -22 -23 -24 -25 25 -27 -28 -29 -30 -31
leaf_value=0.0064428753137015602 -0.016695143585415611 -0.0056915399608867155 0.0074305572096329932 0.0084094868361451972 -0.0028890032418952567 0.0049177424164529443 -0.029987658358816401 0.025095693943544103 -0.0064134330243249887 -0.0056843372278530873 0.0071276116553875453 0.01209619304326413 -0.063332854995735238 -0.0022663065146863877 0.025055565371997286 -0.0095265828384971749 -0.0022567761175014229 0.0037422329580512979 0.021330780817278634 -0.0086568794452849887 -0.0030850549815936898 -0.015677241164919042 -0.022788329759350398 0.011161796360710992 0.025171664180786282 -0.0025808829439839106 0.005368253574882461 0.0027519762244115585 0.0071595989757037405 -0.041850580707569585
leaf_weight=2011.6106183677912 4077.7502742856741 4918.9385899156332 7483.4915761351585 1089.0219279378653 3528.0776292681694 745.11306348443031 1443.0100346505642 499.10655166208744 1996.8073414564133 4535.3610601872206 195.72423957288265 530.39384652674198 40.466416329145432 985.42190790176392 2151.8364364653826 2532.1537940055132 2251.6139718145132 700.33086025714874 1098.7669755369425 484.26033423841 604.85115192830563 2941.0806853324175 145.48976345360279 1078.9315977096558 290.32574190199375 1928.349951505661 3383.8876551389694 5227.8418510705233 6980.4970841556787 24.492701679468155
leaf_count=8050 16390 19701 29940 4357 14125 2982 5854 1997 7992 18161 785 2122 162 3944 8634 10133 9010 2803 4403 1938 2427 11813 583 4318 1162 7720 13544 20920 27932 98
internal_value=0 -0.00699612 0.00540865 0.0115574 -0.00405979 -0.0160868 -0.0184826 0.00228396 -0.00112319 -0.00113248 -0.00902577 -0.00324765 -0.00447444 -0.000737928 0.0176851 -0.0103729 0.00430515 0.0202418 0.0144841 0.00542309 -0.0149371 -0.0142543 0.000391651 0.00475187 0.00112852 0.00365845 0.00693306 0.00595863 0.00819259 0.0219641
internal_weight=0 28738 37167 12523.4 21721.7 7016.21 6125.61 24643.6 9175.79 13666 8055.74 7164.17 6633.78 4061.16 5039.96 2572.62 15467.8 3950.93 1799.1 13216.2 4682.6 3136.8 890.603 2064.35 9130.64 5602.56 3674.21 12731.9 7504.1 523.599
internal_count=264000 115247 148753 50137 87011 28236 24671 98616 36721 54712 32299 28671 26549 16254 20197 10295 61895 15840 7206 52885 18817 12598 3565 8262 36551 22426 14706 50947 30027 2095
is_linear=0
shrinkage=0.05


Tree=7
num_leaves=31
num_cat=0
split_feature=33 48 11 48 144 144 22 37 131 1 138 137 48 138 146 29 22 125 90 144 144 76 21 54 68 52 71 145 132 1
split_gain=907.943 375.769 170.908 169.781 120.654 82.8647 70.8718 69.5329 61.2332 54.4861 67.8935 71.7336 52.3352 51.8449 70.31 50.8759 48.9924 46.4888 45.5065 44.6736 44.388 44.1978 43.393 40.5579 38.2157 38.1291 56.4736 50.8267 36.8559 40.0614
threshold=1.5138888888872477 0.0002337856797331947 16110.360000000002 -0.00031273497855571628 1.9993945000000004 1.9992472500000003 -8.4912455258826964e-06 127.36787093733626 0.0044120000000000279 155.00000000000003 8.5000000000000018 1.5000000000000002 0.00063448472316444818 10.500000000000002 0.0092889999999999934 0.00047053111604851525 -7.5432412558467781e-05 0.00031249999999993788 0.99806650000000008 1.9997542500000003 2.0003125000000002 27256184.955000002 0.00020043285499768109 1.0029067500000002 1406193625.3150003 1.000175692547945 0.015748549694311612 0.0037112509946676591 6.1000000000033257e-05 195.00000000000003
decision_type=8 2 2 2 2 2 2 2 8 2 2 2 2 2 2 8 2 10 10 2 2 8 2 2 10 2 10 2 8 2
left_child=1 4 6 7 9 8 12 21 -5 22 11 28 -3 14 23 -4 20 -15 -13 -17 -6 -2 -1 -12 -7 26 -18 -27 -11 -30
right_child=3 2 15 5 16 24 -8 -9 -10 10 13 18 -14 17 -16 19 25 -19 -20 -21 -22 -23 -24 -25 -26 27 -28 -29 29 -31
leaf_value=-0.01286470188825491 0.0073324454727722839 -0.017857750497740851 -0.0130192776691307 0.0093188687345513964 -0.0059247695577886693 0.0070847007945059855 -0.0094644390255781089 0.016751665978694392 -0.0028706210794213452 -0.0082039190306304795 0.038295208338250973 0.004427453024609034 -0.029538853579520592 0.00078993700848041222 0.00080643411054075837 -0.0056715242491873086 0.010421238280400674 -0.0095330057667866817 -0.017947859223075364 0.010417304867723711 0.014252689356841153 -0.066020205505840562 0.003048130743640754 -0.02599455384219896 -0.023029494921874831 -0.0054140834849511323 0.0012183120809061466 0.0041933880600193074 -0.015566440454421519 0.012074187380307459
leaf_weight=3231.7884886264801 2619.0958473682404 3548.7207033187151 799.84768465161324 1313.4392035901546 3388.4487481415272 12756.496471717954 1827.4107601493597 5107.2293746471405 4779.0011117011309 922.05766619741917 247.81303006410599 259.62691588699818 1313.911651417613 3770.3395081460476 533.22409431636333 877.97358271479607 2668.1220283359289 1534.5322711765766 1821.3429142385721 848.37985551357269 296.40985073149204 20.697987526655197 493.88568437099457 27.227271676063538 106.22841992974281 2908.2328089177608 4442.7168893516064 2613.9261272996664 164.72802431881428 641.95999550819397
leaf_count=12949 10491 14301 3212 5255 13578 51035 7334 20478 19124 3693 992 1040 5345 15098 2135 3524 10677 6148 7298 3398 1187 83 1978 109 425 11640 17780 10461 660 2572
internal_value=0 -0.00484596 -0.0136752 0.00710965 -0.00213051 0.0045608 -0.0178592 0.0133461 -0.000242749 -0.00559957 -0.0036638 -0.00890284 -0.0210141 -0.000398825 0.0113976 -0.00259483 0.000771082 -0.00219617 -0.0151563 0.00223499 -0.0043017 0.00675731 -0.0107553 0.0319309 0.006836 0.00225074 0.00467143 -0.000866366 -0.00137532 0.00642989
internal_weight=0 39182.6 9216.24 26702.2 29966.4 18955.2 6690.04 7747.02 6092.44 13648.5 9922.85 3809.72 4862.63 6113.14 808.264 2526.2 16317.9 5304.87 2080.97 1726.35 3684.86 2639.79 3725.67 275.04 12862.7 12633 7110.84 5522.16 1728.75 806.688
internal_count=264000 157109 37114 106891 119995 75839 26980 31052 24379 54672 39745 15263 19646 24482 3236 10134 65323 21246 8338 6922 14765 10574 14927 1101 51460 50558 28457 22101 6925 3232
is_linear=0
shrinkage=0.05


Tree=8
num_leaves=31
num_cat=0
split_feature=48 33 22 48 53 144 141 110 83 144 4 11 74 66 50 138 144 18 62 29 145 132 145 70 61 144 137 142 48 21
split_gain=822.775 334.198 170.271 132.829 123.036 115.125 91.828 58.0008 53.3513 49.1681 48.7249 46.922 45.9051 42.7118 45.1087 38.0356 59.5667 38.6731 53.8163 35.9688 35.3328 34.9662 34.9006 38.3764 38.1078 34.4625 34.3278 33.9872 33.7692 33.5406
threshold=8.1619811385368689e-05 3.2000000000333073 -6.6131597153680275e-06 0.00035819749428210324 0.00042824645583805244 1.9990355000000004 72958.547500000015 -1.0000000180025095e-35 4.406135543832957e-05 1.9998302500000003 0.99849950000000021 5883.0750000000007 16281965.135000002 117187372.84500001 1.1893549136814834e-08 8.5000000000000018 1.9999690000000003 -0.001828091672838389 50137990.085000001 -0.014214973945568494 0.0058508064693528995 -0.0012620000000000407 0.0029094741588946973 19654968.875000004 1.5237996980813275 1.9989022500000002 1.0000000180025095e-35 102894.04846570586 0.00094244346874415206 0.00012698463485970586
decision_type=2 10 2 2 2 2 2 8 10 2 2 2 10 8 2 2 2 10 10 8 2 8 2 10 2 2 2 2 2 2
left_child=1 5 3 26 19 10 12 15 25 11 22 -4 28 14 -9 16 29 18 27 -3 -8 -11 23 -1 -25 -6 -2 -17 -5 -7
right_child=2 4 9 6 8 7 20 13 -10 21 -12 -13 -14 -15 -16 17 -18 -19 -20 -21 -22 -23 -24 24 -26 -27 -28 -29 -30 -31
leaf_value=-0.0021429254713899262 -0.0012985910078917948 -0.013150549717388813 -0.011449381824589261 -0.022383528565521268 0.0022134225184031395 -0.0045604365052557749 0.011803991033218546 -0.0027085795454798839 0.022444468066992539 -0.030506616917616615 -0.0083411617883188301 -0.0019623348907193551 -0.0038871478379320029 0.0067109471460477677 0.0046374492781237784 0.0032661849053184327 0.014797744627741999 0.011828922193149486 -0.0039967529044522563 0.0067214596505020836 -0.01483193335812583 0.004980128196677468 -0.0018404355226021392 -0.0442041274328627 0.039171922894930232 0.014425281534590868 -0.010166841210328242 0.014093665345522753 -0.036420083031256156 0.0078738566508982158
leaf_weight=154.92963825166225 1312.9190491884947 233.45662848651409 2004.1726481467485 2596.4056209623814 711.33206744492054 2499.6757241636515 279.57873436808586 9341.337582603097 1874.9450537860394 71.935222133994102 4329.2793748229742 3727.0874820202589 289.60811120271683 2069.5816847980022 2691.9738037437201 1657.1815424561501 644.88417045772076 2694.9974810481071 1368.9375738501549 9250.9081675559282 224.4635809212923 1981.6170039921999 1645.0366443544626 14.9889909774065 159.95312055945396 3075.9128882139921 6462.0926330089569 1288.1436403244734 513.17959168553352 692.60603581368923
leaf_count=620 5269 934 8043 10515 2850 10005 1121 37388 7533 288 17346 14932 1174 8280 10774 6631 2580 10782 5477 37017 903 7933 6584 60 640 12339 25952 5154 2104 2772
internal_value=0 0.00361879 -0.00862926 -0.0124476 0.00971423 0.000664723 -0.0199736 0.00219014 0.0155466 -0.00290131 -0.00537226 -0.00527987 -0.0229268 7.59411e-05 -0.0010652 0.0049391 0.000937332 0.00712984 0.00419446 0.00623231 -5.77015e-05 0.00373704 0.00113601 0.0159792 0.0320283 0.0121316 -0.00866931 0.0080016 -0.0247 -0.00186266
internal_weight=0 46400.1 19463.1 11678.2 15146.6 31253.5 3903.24 24949.3 5662.19 7784.81 6304.19 5731.26 3399.19 14102.9 12033.3 10846.4 3837.17 7009.26 4314.26 9484.36 504.042 2053.55 1974.91 329.872 174.942 3787.24 7775.01 2945.33 3109.59 3192.28
internal_count=264000 185766 78234 47038 60673 125093 15817 99843 22722 31196 25250 22975 13793 56442 48162 43401 15357 28044 17262 37951 2024 8221 7904 1320 700 15189 31221 11785 12619 12777
is_linear=0
shrinkage=0.05


Tree=9
num_leaves=31
num_cat=0
split_feature=15 48 141 48 144 144 22 90 141 48 21 16 1 10 27 7 48 141 131 108 16 21 22 98 100 2 75 137 0 8
split_gain=752.101 290.245 169.417 151.192 95.1677 92.494 73.4781 69.5772 65.4519 55.3702 54.3401 69.0597 60.3415 48.7892 46.7735 45.3491 42.382 52.8771 38.2697 37.8836 37.5983 34.165 33.9971 35.2886 33.6946 35.845 32.9757 32.8307 40.3127 32.451
threshold=-0.14411378553912385 0.0002337856797331947 87966.645000000004 -0.000421791713441669 1.99939975 1.9989997500000001 -3.3078743953642523e-05 1.0063335000000002 243656.80500000002 0.00084659888457824112 1.6014228642622077e-05 -0.79219963817445371 525.00000000000011 0.99879350000000011 -0.00036134105641972875 0.99298700000000018 -0.00014925963692420698 74793.215000000011 -0.0011434999999999638 -0.00014049999999998783 -0.57074866557315185 0.00020043285499768109 0.0002028512086389282 -1.0000000180025095e-35 -1.0000000180025095e-35 30295379.975000005 -0.1064867702471403 3.5000000000000004 52.500000000000007 0.99931850000000011
decision_type=2 2 2 2 2 2 2 8 2 2 2 2 2 2 8 8 2 2 8 10 2 2 2 10 8 2 8 2 2 2
left_child=3 4 6 7 13 -5 9 8 22 24 11 12 15 20 -13 -7 17 -12 -15 -6 -2 -20 23 26 -3 -26 -1 28 -4 -10
right_child=1 2 27 5 19 10 -8 -9 29 -11 16 14 -14 18 -16 -17 -18 -19 21 -21 -22 -23 -24 -25 25 -27 -28 -29 -30 -31
leaf_value=0.031957723304863503 0.0025736786668591289 -0.013119737099681915 0.032302011171383531 -0.0020721203090184577 0.004577539459068674 0.021869344028926457 -0.0087271321638360527 -0.01832427727846218 -0.014104348605784314 -0.032127899223926247 0.013109371517060295 -0.010820626873664075 -0.013694108551439751 0.0033821408414652812 0.0013874041518347712 0.0065506742000024905 0.0050900626433328846 -0.002145503818328726 -0.0092420787036424888 -0.0010411214271513296 -0.010130182628293547 0.00062251761952023779 0.022345046193904546 0.0067220720400162264 -0.023540370379701876 0.010739587480292301 0.014503489121188293 0.014507408418972823 -0.0042576465734791968 0.010864428348914983
leaf_weight=338.73930175602436 2671.9587331861258 2401.322678476572 80.43496310710907 4566.9677304774523 4201.4592899382114 558.57604391872883 2535.0154341310263 164.05756562948227 268.9053358733654 708.70749908685684 4771.3805750459433 1110.9346092641354 326.92808428406715 788.82409881055355 2671.0115353763103 3577.0913579314947 5601.2114019989967 644.82471354305744 7711.2802128195763 10491.295754745603 744.75905641913414 990.47405503690243 1675.6232211440802 1174.2694083750248 1786.0839523673058 79.659597992897034 1345.2961945384741 395.29467730224133 1204.8348817229271 252.14842157065868
leaf_count=1361 10701 9721 322 18284 16819 2235 10186 657 1076 2922 19113 4445 1308 3158 10687 14312 22410 2580 30918 42009 2985 3968 6733 4712 7231 322 5406 1583 4827 1009
internal_value=0 -0.00474909 -0.0124447 0.00601357 -0.0021863 0.00432539 -0.0156557 0.0137214 0.0147615 -0.0191857 0.00584222 0.00277224 0.00698496 -0.00531882 -0.00219867 0.00861966 0.00813955 0.0112932 -0.00716329 0.00056556 -0.000195445 -0.00811924 0.0166902 0.0133752 -0.0170361 -0.0220768 0.0180144 0.001906 -0.00196966 -0.00202145
internal_weight=0 36791.4 9191.35 29048 27600.1 23828.9 7510.79 5219.04 5054.98 4975.77 19262 8244.54 4462.6 12907.3 3781.95 4135.67 11017.4 5416.21 9490.58 14692.8 3416.72 8701.75 4533.93 2858.3 4267.07 1865.74 1684.04 1680.56 1285.27 521.054
internal_count=264000 147672 37114 116328 110558 95374 30382 20954 20297 20196 77090 32987 17855 51730 15132 16547 44103 21693 38044 58828 13686 34886 18212 11479 17274 7553 6767 6732 5149 2085
is_linear=0
shrinkage=0.05


Tree=10
num_leaves=31
num_cat=0
split_feature=15 11 33 48 144 30 20 1 21 83 144 82 141 20 133 59 7 48 69 100 144 1 29 1 144 56 79 5 50 69
split_gain=683.418 206.348 201.72 151.105 91.8421 87.8208 67.63 61.7274 48.1496 46.1892 40.2995 39.9174 38.0053 37.7249 39.4377 37.4412 38.8813 34.3695 34.1652 38.0672 33.9772 40.6065 33.6149 33.5411 33.0851 53.1029 32.9892 31.5699 35.478 33.6608
threshold=0.054403878788842681 9446.215000000002 4.105263157884302 0.00035819749428210324 1.9990355000000004 0.00020542656000558906 -4.3631549121166042e-05 535.00000000000011 2.7008291545530745e-05 4.406135543832957e-05 2.0000440000000004 0.99848250000000005 197846.00500000003 -5.3912984498136431e-05 0.0016825000000000314 1.9320407466742562 0.99298700000000018 0.00014924467682408951 0.043555185222843969 -1.0000000180025095e-35 1.9995890000000001 415.00000000000006 4.5060787024445059e-06 535.00000000000011 1.9997685000000003 0.002835938175135454 -0.18974706428513896 3363998.9350000005 1.0014100594810858e-08 0.57130591287696975
decision_type=2 2 10 2 2 2 2 2 2 10 2 8 2 2 10 2 8 2 8 8 2 2 10 2 2 2 8 2 2 10
left_child=2 3 4 10 11 -4 12 27 15 -7 -2 -1 17 14 -5 20 -17 -3 -10 -20 -6 -22 -9 24 -14 -26 -21 28 -8 -29
right_child=1 6 5 13 8 9 7 22 18 -11 -12 -13 23 -15 -16 16 -18 -19 19 26 21 -23 -24 -25 25 -27 -28 29 -30 -31
leaf_value=0.0023534965980879776 -0.0081212809201443529 -0.0042075249496457837 0.006215170889316635 -0.023143629049256348 -0.0078119859025756943 0.011346697986028751 0.01579836821367369 -0.025743326088209274 0.0073412757366139829 0.021492924569189564 0.004552927058973099 -0.007147054407548147 -0.0024128102995453473 -0.010561150164024416 0.014584669714617247 0.0172929461023601 0.0020551806761718236 -0.011358588622733803 0.0086208043368271505 -0.0085712928036820509 0.004310074357763951 -0.016530111980571454 0.032826742082858323 -0.056049469734153839 0.023763748066895417 -0.028121747413438758 0.0035509184475818498 -0.00021897263358020176 -0.0030955515295472504 -0.016044696642975958
leaf_weight=1621.2099401801825 7365.9040786474943 4939.3317015469074 7480.5976528376341 2698.7423936277628 1909.752991527319 3331.4868415892124 628.14748112857342 27.725612312555313 7878.869821831584 1691.0502434819937 685.56291250884533 3476.461590602994 593.87110006809235 935.28004460036755 71.090163454413414 469.77055644989014 3846.1161178052425 2546.4978006035089 1182.790046647191 1113.8013813197613 1736.6196735650301 270.0925890058279 210.40099504590034 22.975866973400116 339.55267032980919 57.692258790135384 1131.2922873049974 6787.3984137326479 411.04573839902878 353.49726210534573
leaf_count=6489 29592 19795 29940 11020 7643 13383 2515 111 31534 6814 2749 13930 2379 3766 290 1880 15390 10267 4735 4457 6949 1081 842 92 1359 231 4528 27177 1646 1416
internal_value=0 -0.00579931 0.00447623 -0.0108874 0.00185116 0.00964879 -0.00226353 0.000913057 0.00341047 0.0147629 -0.0070421 -0.0041256 -0.00540958 -0.0192435 -0.0221753 0.00050162 0.00371376 -0.00664014 0.00552837 0.00136148 -0.00303811 0.0015051 0.0260073 0.00367418 0.00505868 0.0162284 -0.00246297 0.000182551 0.00832501 -0.0010024
internal_weight=0 28674.7 37139.9 11756.6 24636.8 12503.1 16918.1 8418.22 19539.1 5022.54 8051.47 5097.67 8499.92 3705.11 2769.83 8232.35 4315.89 7485.83 11306.8 3427.88 3916.47 2006.71 238.127 1014.09 991.116 397.245 2245.09 8180.09 1039.19 7140.9
internal_count=264000 115247 148753 47417 98616 50137 67830 33707 78197 20197 32341 20419 34123 15076 11310 32943 17270 30062 45254 13720 15673 8030 953 4061 3969 1590 8985 32754 4161 28593
is_linear=0
shrinkage=0.05


Tree=11
num_leaves=31
num_cat=0
split_feature=33 48 141 48 144 144 90 48 141 36 1 138 137 138 146 124 70 90 21 16 54 56 6 29 110 80 146 137 132 14
split_gain=620.046 258.003 144.418 119.416 86.3265 66.5231 62.1924 61.9473 48.8326 44.5473 42.8059 58.1955 59.5229 44.5098 58.7972 45.0398 42.7508 38.5427 38.3995 56.774 52.1756 36.913 35.6288 40.8472 35.5037 36.3974 35.2965 37.4716 35.2136 35.1865
threshold=1.5138888888872477 0.00021520204341297393 87966.645000000004 -0.000421791713441669 1.9993935000000003 1.9991815000000002 1.0063335000000002 0.00059890034944371407 243656.80500000002 2.999999999965222 155.00000000000003 8.5000000000000018 1.5000000000000002 10.500000000000002 0.0092889999999999934 -0.00011499999999992071 733922.63500000013 0.99806650000000008 1.6014228642622077e-05 -0.79931844239880256 0.99667437500000011 0.0010950423198767291 0.97262900000000008 -0.00026843613177071933 -0.00014200000000003096 11834279.575000001 0.0073150000000000168 1.5000000000000002 6.1000000000033257e-05 0.99987475000000015
decision_type=8 2 2 2 2 2 8 2 2 8 2 2 2 2 2 10 10 10 2 2 2 2 10 10 10 10 2 2 8 2
left_child=1 4 7 6 10 16 8 9 -2 -3 26 12 28 14 21 -15 -5 -14 19 20 -7 -13 -21 -24 -6 -26 27 -1 -12 -10
right_child=3 2 -4 5 24 18 -8 -9 29 -11 11 13 17 15 -16 -17 -18 -19 -20 22 -22 -23 23 -25 25 -27 -28 -29 -30 -31
leaf_value=-0.038073994329747798 0.01534299141216746 -0.0090870870832894315 0.0017329274971999362 -0.0265412943472716 0.0039516613141586067 0.019792308017709405 -0.017930166297294572 -0.021527595220352268 -0.017136646861036747 -0.019386159173809758 -0.0076577818606790209 0.04341921199804314 0.0046199898834344217 0.0047598447558465443 0.001527663432319256 -0.0050232655602304712 0.00053433665976456639 -0.016291249236907789 0.008195511674901082 0.00059604234445872833 0.0044622540221775902 0.0032556471406142923 -0.01950020190024038 0.021241113499245984 -0.0023321427207593239 0.0054589036397511108 -0.007238310721713043 -0.010739669707342435 0.0069166341586725955 0.0097520225613859507
leaf_weight=203.26050019264221 4498.9010083526373 4778.7150339186192 1825.453771725297 149.36767928302288 5787.7841455191374 692.68759126961231 160.53552544116974 1977.945240482688 203.15126530826092 1345.581535756588 888.95296303927898 178.62685142457485 252.10904468595982 1831.9596279114485 518.85754890739918 3288.0285183489323 6086.2143791168928 1749.4729313701391 8693.2999542057514 2581.1581766754389 2793.0068067461252 84.16158838570118 441.83739142119884 71.474577322602272 8429.308986634016 1823.3180507868528 3047.6604490429163 327.22453625500202 776.43220929801464 303.33965338766575
leaf_count=815 18109 19293 7314 598 23168 2773 643 8118 813 5456 3563 715 1010 7338 2078 13179 24366 7021 34817 10328 11176 337 1768 286 33756 7298 12226 1312 3112 1214
internal_value=0 -0.00400927 -0.0109721 0.00587714 -0.00164095 0.00423763 0.0127034 -0.0138345 0.0136859 -0.0113499 -0.00464457 -0.00289988 -0.00784667 0.000173796 0.011287 -0.00152282 -0.000114235 -0.0136574 0.00601434 0.00313271 0.00750869 0.0305563 -0.00179651 -0.0138273 0.000820822 -0.00094659 -0.00931017 -0.0212131 -0.00086293 -0.0010329
internal_weight=0 39114.9 9927.7 26675 29187.2 21509 5165.93 8102.24 5005.39 6124.3 13146.7 9568.6 3666.97 5901.63 781.646 5119.99 6235.58 2001.58 15273.5 6580.16 3485.69 262.788 3094.47 513.312 16040.4 10252.6 3578.15 530.485 1665.39 506.491
internal_count=264000 157109 40181 106891 116928 86112 20779 32867 20136 24749 52706 38353 14706 23647 3130 20517 24964 8031 61148 26331 13949 1052 12382 2054 64222 41054 14353 2127 6675 2027
is_linear=0
shrinkage=0.05


Tree=12
num_leaves=31
num_cat=0
split_feature=48 33 22 48 21 144 100 1 110 141 79 1 144 144 38 72 10 48 55 106 21 100 44 52 45 144 116 141 13 144
split_gain=566.344 232.223 126.553 94.313 88.1893 84.1718 78.051 50.0744 47.843 47.125 43.4716 43.4229 41.7463 41.6429 39.4077 38.7537 38.7308 38.1826 37.4007 39.9256 39.2226 46.7249 41.1381 36.8933 36.0643 35.7411 35.3634 41.1718 34.0888 40.2739
threshold=8.1619811385368689e-05 3.2000000000333073 -6.6131597153680275e-06 0.0005125183299453099 3.1496913370604835e-05 1.9990355000000004 1.0000000180025095e-35 535.00000000000011 -1.0000000180025095e-35 72958.547500000015 -0.086172055508758436 505.00000000000006 1.9998302500000003 1.9996842500000003 5.2915542492371674 11478674.020000001 0.99879350000000011 0.00014924467682408951 29882294.421250004 0.0022430000000000509 2.8466850353773519e-05 -1.0000000180025095e-35 -0.029562225972974535 0.99603800749907934 0.00039800000000006502 1.9993082500000003 -79137.50499999999 131694.91000000003 180569.85000000001 1.999878
decision_type=2 10 2 2 2 2 8 2 8 2 10 2 2 2 2 10 2 2 2 10 2 8 8 2 2 2 10 2 2 2
left_child=1 5 3 13 11 16 15 12 28 -5 -8 14 -4 17 -3 -6 -1 -2 20 -20 -10 -22 -23 -19 -12 -16 27 -15 29 -7
right_child=2 4 7 9 6 8 10 -9 18 -11 24 -13 -14 26 25 -17 -18 23 19 -21 21 22 -24 -25 -26 -27 -28 -29 -30 -31
leaf_value=0.00093640433594535482 -0.0050158779496897246 0.00012326413763151333 -0.0049782627484483595 -0.022324223276781935 0.01830792894162073 0.001324869014618871 0.00076085892506854726 0.028307667081794816 -0.0045083265372494333 -0.0011086122417749015 0.0052610379530536495 -0.0093908513311382821 0.0034001803546717599 -0.0016632288590385702 0.0018705294265410934 0.0040858513456024795 -0.0073891555284084703 0.0085336344592095506 0.0037058371289558512 0.026343222618893408 0.0078115365135781063 -0.017110276205481077 8.9469770775933506e-06 -0.014160592962140287 0.016741572048845892 0.012346640447342313 -0.0054655346109341299 0.031537148090895889 0.010294052116539776 0.0097116208317297951
leaf_weight=2091.0615998506546 2147.0939381420612 2457.1545284986496 5624.5368560701609 1998.4694787710905 3553.5507583171129 7081.459454908967 1771.7951006442308 131.90656112134457 5072.0147916823626 301.19425387680531 1414.9296659678221 577.93277667462826 2020.9105195254087 254.19908076524734 1306.2236199229956 553.61313806474209 4208.0678617209196 187.20762379467487 1949.3059670478106 216.40051892399788 1961.5397155284882 380.46883210539818 4519.5342688858509 4126.990525379777 1324.3058365136385 2161.227665245533 2461.2986996769905 147.60106694698334 1967.8349627256393 1794.1133794337511
leaf_count=8371 8620 9839 22575 8248 14309 28346 7100 528 20309 1213 5665 2313 8093 1024 5230 2227 16879 756 7800 866 7853 1523 18091 16679 5334 8656 9907 591 7875 7180
internal_value=0 0.00300079 -0.0071735 -0.0104766 0.00808731 0.000538961 0.0114041 -0.00223662 0.00184319 -0.0195455 0.00686385 0.0036913 -0.0027636 -0.00823998 0.00496744 0.0163909 -0.0046254 -0.0104643 -7.72135e-05 0.0059678 -0.00117426 0.00129026 -0.0013203 -0.0131758 0.0108114 0.00840018 -0.00322035 0.0105329 0.00434022 0.00302017
internal_weight=0 46362.5 19401.4 11624.1 15120.7 31241.8 8618.19 7777.35 24942.7 2299.66 4511.03 6502.54 7645.45 9324.39 5924.61 4107.16 6299.13 6461.29 14099.3 2165.71 11933.6 6861.54 4900 4314.2 2739.24 3467.45 2863.1 401.8 10843.4 8875.57
internal_count=264000 185766 78234 47038 60673 125093 34635 31196 99843 9461 18099 26038 30668 37577 23725 16536 25250 26055 56442 8666 47776 27467 19614 17435 10999 13886 11522 1615 43401 35526
is_linear=0
shrinkage=0.05


Tree=13
num_leaves=31
num_cat=0
split_feature=48 48 33 141 46 125 55 124 20 136 16 21 100 73 136 138 138 50 42 84 31 38 56 88 21 1 62 127 136 90
split_gain=515.618 157.488 153.436 119.231 62.8246 53.9089 53.0703 62.987 43.115 43.0607 48.9998 47.091 44.5255 57.6276 44.4865 41.6572 75.3112 46.7904 70.3777 40.8159 40.5404 38.4328 39.8078 38.667 35.8676 35.7366 36.4639 36.9282 35.3402 34.949
threshold=1.1939739866298141e-05 0.00031435151497810301 4.9575112830507004 87966.645000000004 3.5000000000062765e-05 0.00047850000000004839 37760371.683750011 -0.00051400000000006985 -0.00017284314489886818 -0.0018585000000000405 -0.80410133279608365 0.00020043285499768109 -1.0000000180025095e-35 -0.13364547169173988 0.01251550000000007 8.5000000000000018 7.5000000000000009 2.9846939683541232e-09 0.0060211890000000006 0.99795950000000011 0.00035309302398738891 4.7186515206662003 0.00022969077038247212 1.0007945000000003 3.1496913370604835e-05 195.00000000000003 2039599.7400000002 6.2499999999965375e-05 0.0011385000000000425 0.99954750000000014
decision_type=2 2 10 2 10 8 2 8 2 8 2 2 8 10 10 2 2 2 2 10 2 2 2 10 2 2 10 8 8 10
left_child=2 6 5 8 24 15 7 -2 25 10 -9 12 13 -11 21 16 -1 18 -18 -19 -6 22 23 -15 -4 -3 -27 -28 -7 -8
right_child=1 3 4 -5 20 28 29 9 -10 11 -12 -13 -14 14 -16 -17 17 19 -20 -21 -22 -23 -24 -25 -26 26 27 -29 -30 -31
leaf_value=0.001614379223937123 0.0036249956361603629 -0.025923282016162022 0.0030475171830816224 0.0022441472693430623 0.011941779445177134 -0.014430371273249488 0.011007604796387016 -0.0020260083780911094 -0.01062326759971201 0.0047986029541085239 0.01938075838043854 0.0016470962868732988 -0.0095065333496922588 -0.0080504539999126084 -0.021204109442775981 0.0046874493483497516 -0.046639057993168143 0.046353931891302262 0.018265014934509952 -0.010280412019431241 0.025969240107423738 -0.00087285951215969521 -0.018793253727276936 0.014032294200321583 0.0097193923721918592 0.013853913268406666 -0.027581093885917091 -0.010142075371290523 -0.0012731802954009134 -0.0014074936749043476
leaf_weight=6980.2865014970303 2485.4558030962944 1207.9181878268719 3722.7035674452782 1228.0691421478987 2130.8251807540655 573.48520152270794 1036.0550576746464 1017.9579115211964 2721.8769529610872 1511.2258087545633 362.51974533498287 1965.927737146616 6855.3199285268784 1536.1270931810141 453.1596312969923 13049.188608080149 197.43964610993862 34.452567845582962 52.972737163305283 415.29563340544701 679.27043430507183 2821.2764032334089 775.49348486959934 227.60396665334702 4389.7554062008858 106.95290249586105 478.15923628211021 831.38001237809658 4637.1014186143875 1251.7091257423162
leaf_count=27953 9971 4982 14909 4921 8567 2296 4150 4078 11035 6067 1452 7879 27517 6172 1819 52248 791 138 212 1664 2746 11330 3118 914 17654 441 1967 3422 18574 5013
internal_value=0 -0.00500424 0.00391832 -0.0118051 0.00888956 0.0018251 -0.00299925 -0.00382396 -0.0150323 -0.0048803 0.00359551 -0.00560497 -0.00661039 -0.00389991 -0.00616104 0.00296788 4.62968e-05 -0.0155868 -0.0329091 -0.00594199 0.0153326 -0.00488934 -0.00935197 -0.00520074 0.00665775 -0.019605 -0.0142171 -0.0165097 -0.00272128 0.00421491
internal_weight=0 28874.2 36862.8 6574.36 10922.6 25940.2 22299.8 20012.1 5346.29 17526.6 1380.48 16146.1 14180.2 7324.89 5813.66 20729.6 7680.45 700.161 250.412 449.748 2810.1 5360.5 2539.22 1763.73 8112.46 2624.41 1416.49 1309.54 5210.59 2287.76
internal_count=264000 116248 147752 26768 43876 103876 89480 80317 21847 70346 5530 64816 56937 29420 23353 83006 30758 2805 1003 1802 11313 21534 10204 7086 32563 10812 5830 5389 20870 9163
is_linear=0
shrinkage=0.05


Tree=14
num_leaves=31
num_cat=0
split_feature=15 22 22 144 21 20 90 11 144 92 34 125 138 56 131 16 6 144 138 1 52 138 69 138 75 7 1 129 98 47
split_gain=468.641 200.417 103.7 90.4457 76.3522 69.143 63.0846 61.8326 58.4819 57.6363 58.7745 56.5005 54.7452 54.0789 51.6893 44.3275 64.6832 43.3204 42.7459 42.1803 39.0022 36.5188 36.3182 35.3243 34.761 34.71 35.4242 34.5704 34.2834 34.2703
threshold=-0.14411378553912385 -9.4601420774277317e-05 8.4356004301227021e-05 1.9996050000000001 1.0000000180025095e-35 -1.0000000180025095e-35 0.99853350000000007 4823.1750000000002 1.9992472500000003 -1.0000000180025095e-35 0.16347981865963859 0.00018300000000009978 8.5000000000000018 0.00065183212943989042 0.0054034999999998954 -0.81117061992936856 0.99138350000000008 1.9996610000000001 7.5000000000000009 425.00000000000006 1.0001903280688182 12.500000000000002 0.042448157305754027 3.5000000000000004 0.1456313925723868 1.0022815000000003 495.00000000000006 0.00013100000000004777 -1.0000000180025095e-35 9728.8306952204348
decision_type=2 2 2 2 2 2 8 2 2 8 10 8 2 2 8 2 8 2 2 2 2 2 8 2 8 8 2 8 8 2
left_child=2 4 8 6 17 9 13 -8 14 -4 -11 12 18 -3 -1 16 -10 -2 19 -9 -5 -14 -7 -19 -12 -22 -27 -18 -6 -16
right_child=1 3 5 20 28 22 7 11 15 10 24 -13 21 -15 29 -17 27 23 -20 -21 25 -23 -24 -25 -26 26 -28 -29 -30 -31
leaf_value=0.0074565911189225457 -0.010462677981421734 -0.0024076738134340778 0.027060928419442461 0.0048804176835117175 -0.012359043156846411 0.0084123610229797172 -0.012357436188020276 -0.0083058436739902094 0.020126763517407165 0.025196193271800806 0.0045194975390001882 -0.0085163630141017674 0.0081397051195841036 0.010062480849856842 -0.004009425998274441 0.0018090178704582354 0.0011808993570951217 -0.016405905943729159 -0.026849304638091605 0.0070333721624805754 -0.0092701601844283384 -0.0015100269897719563 -0.00120176581392139 0.0010884226320017822 0.017287109206644811 -0.00016101503506442259 0.021338694207639897 0.00873298383058305 -0.022695442148672348 0.018948982644287148
leaf_weight=1424.8713131994009 3068.9695546925068 2666.7598102688789 717.38850530982018 5540.2589249461889 2258.3025856763124 2860.1330197900534 2656.6890879571438 1842.7512284815311 881.02614007890224 624.20171074569225 1885.7332109510899 4016.2104956358671 1740.9160904288292 1289.955868601799 5099.5327475816011 6829.0541177839041 2555.2247330546379 337.1045094281435 236.29777131974697 592.19771283864975 1054.9486704468727 2244.5306506305933 1496.1452266573906 2003.2903846502304 743.21665601432323 3709.7890901267529 202.02432350814342 3723.5358222126961 1244.1637799888849 167.89701394736767
leaf_count=5707 12394 10705 2908 22196 9247 11467 10707 7394 3533 2514 7590 16119 6976 5174 20431 27360 10233 1356 949 2374 4227 8995 5997 8056 2996 14870 809 14919 5124 673
internal_value=0 -0.00375456 0.00474886 -0.00166244 -0.0102793 0.00946025 -0.00388617 -0.00553183 0.00285193 0.0142327 0.0114038 -0.0038328 -0.00100705 0.00165781 -0.000992191 0.00469096 0.00743978 -0.00655525 -0.00654559 -0.00457523 0.00199608 0.00270515 0.00511043 -0.00143142 0.00812896 -0.00122131 0.00094933 0.00565956 -0.0160308 -0.00327764
internal_weight=0 36705.2 29008 27793.3 8911.83 8326.82 17286.3 13329.6 20681.1 3970.54 3253.15 10672.9 6656.69 3956.72 6692.3 13988.8 7159.79 5409.36 2671.25 2434.95 10507 3985.45 4356.28 2340.39 2628.95 4966.76 3911.81 6278.76 3502.47 5267.43
internal_count=264000 147672 116328 111495 36177 33472 69393 53514 82856 16008 13100 42807 26688 15879 26811 56045 28685 21806 10717 9768 42102 15971 17464 9412 10586 19906 15679 25152 14371 21104
is_linear=0
shrinkage=0.05


Tree=15
num_leaves=31
num_cat=0
split_feature=15 22 144 22 21 52 12 11 65 100 141 60 59 144 116 125 138 145 144 133 138 138 1 143 1 42 146 48 68 58
split_gain=428.844 225.22 85.4182 84.9885 70.7763 57.5703 55.2589 53.7417 52.1089 51.7963 56.5301 49.8441 48.7881 47.4776 51.956 44.0375 46.4854 43.8753 42.8611 41.3353 39.557 56.4063 39.1042 38.1449 49.7977 34.8116 33.5943 33.404 33.4006 33.2001
threshold=-0.32079647599147193 -9.4601420774277317e-05 1.9993935000000003 8.2495586486823003e-05 1.0000000180025095e-35 0.99733438235714089 1.0001815000000003 4440.3700000000008 0.14015584310936882 1.0000000180025095e-35 50144.37750000001 -0.32249675363634717 1.9585884039650361 1.9996497500000003 -170138.96499999997 0.00018300000000009978 8.5000000000000018 0.0037112509946676591 1.9990355000000004 -0.00069500000000005658 8.5000000000000018 1.5000000000000002 485.00000000000006 2381107.3250000007 445.00000000000006 0.00099906550000000032 0.01554400000000006 0.00094244346874415206 419858465.66000003 -2.424548396973091
decision_type=2 2 2 2 2 2 2 2 10 8 2 2 2 2 8 8 2 2 2 8 2 2 2 2 2 2 2 2 10 2
left_child=3 4 5 18 8 -3 11 -7 13 10 -5 -4 -11 -2 -15 16 -9 20 -1 -19 21 -8 -13 -23 28 -14 -27 -6 -25 -16
right_child=1 2 6 9 27 7 17 15 -10 12 -12 22 25 14 29 -17 -18 19 -20 -21 -22 23 -24 24 -26 26 -28 -29 -30 -31
leaf_value=-0.0018962341898603884 -0.012330694361301759 0.0055716208846463659 0.0096810774607357791 0.019257085883032824 -0.01340128728885614 -0.011600576217135465 0.0042436271356336638 -0.0058596718067797033 0.0066109951104008566 0.010803552967313237 0.0024679249821126818 0.0028309371999934272 0.03419039309716769 0.022207582549618427 0.068004530087298065 -0.0072157637348166832 0.002524387849785589 -0.015970038008099607 0.0048140833593227706 0.0033528938805622056 -0.0015037737362387183 -0.020167255564710357 -0.0095211652402603167 0.036767264356857114 0.073986506904641217 0.0022872580520940304 -0.015199438751055278 -0.028051401038003659 -0.031753269162323468 -0.0055048200065871888
leaf_weight=2935.1940430253744 2926.0085539370775 1494.4753314554691 2623.9455022364855 2182.5539920926094 3124.1165313720703 2375.6263635605574 409.63414017856121 2754.5644446760416 686.82028770446777 2588.2963761687279 650.89774924516678 7063.4724807739258 69.229242950677872 189.67782709002495 15.46354156732559 4433.9251042604446 4135.2655629515648 299.28160494565964 12573.398757189512 3679.1284041255713 2409.9559612721205 1056.6367026865482 704.66087217628956 27.383488386869431 24.483297318220139 1096.0097374469042 366.50002281367779 444.45077961683273 50.738507598638535 2296.6729012876749
leaf_count=11759 11819 5991 10508 8831 12787 9586 1642 11056 2768 10407 2612 28303 278 760 62 17803 16572 1199 50398 14746 9658 4237 2822 110 98 4399 1470 1883 203 9233
internal_value=0 -0.0029131 -0.000973972 0.00560347 -0.00963035 -0.00374678 0.001322 -0.00476333 -0.00636473 0.0101966 0.0154003 0.003723 0.00661791 -0.00800664 -0.00294942 -0.00332893 -0.000827572 -0.00181367 0.00354407 0.0018993 -0.00552625 -0.0117052 0.00171046 -0.0173409 0.0117649 -0.000454883 -0.00209485 -0.0152259 -0.00773531 -0.00501319
internal_weight=0 43226.4 33543.2 22462.1 9683.21 15193.9 18349.3 13699.4 6114.64 6953.49 2833.45 10392.1 4120.04 5427.82 2501.81 11323.8 6889.83 7957.24 15508.6 3978.41 3978.83 1568.88 7768.13 1159.24 102.605 1531.74 1462.51 3568.57 78.122 2312.14
internal_count=264000 173846 134534 90154 39312 61008 73526 55017 24642 27997 11443 41633 16554 21874 10055 45431 27628 31893 62157 15945 15948 6290 31125 4648 411 6147 5869 14670 313 9295
is_linear=0
shrinkage=0.05


Tree=16
num_leaves=31
num_cat=0
split_feature=48 33 11 48 144 22 22 73 1 69 92 19 55 10 144 61 142 19 6 56 144 124 42 144 20 54 65 138 141 141
split_gain=394.296 165.387 99.3972 89.2353 79.4779 59.9092 43.1862 71.977 51.3779 46.9267 42.175 38.6144 37.6249 40.5049 37.2553 51.2709 42.4932 54.4678 36.253 48.6057 34.9515 34.8794 34.5075 33.8979 33.6052 33.4945 31.6467 30.6075 30.8407 30.3489
threshold=8.1619811385368689e-05 4.105263157884302 14406.925000000001 0.00037093010552462468 1.9990355000000004 0.00014910834680492959 -3.5043067931445327e-06 -0.23430800089491774 535.00000000000011 0.045628544478124151 1.0000000180025095e-35 -8.7922365262992625e-05 74735.12000000001 0.99715750000000003 1.9999475000000002 3.3046405088392157 162186.54552311832 0.0028508212931924646 1.0061550000000004 0.0001876448329492218 1.9996945000000002 -0.0010679999999999021 0.003979746000000001 2.0004290000000005 -0.00011216428029756031 0.9990440833333335 0.025347688874866939 8.5000000000000018 145031.89500000002 72338.860000000015
decision_type=2 10 2 2 2 2 2 8 2 8 10 10 2 2 2 2 2 10 10 2 2 8 2 2 2 2 8 2 2 2
left_child=1 4 3 21 12 29 7 10 14 18 26 -10 -1 -14 15 25 17 -17 19 -8 24 -2 -20 -23 -4 -9 -6 -22 -29 -3
right_child=2 5 20 -5 6 -7 9 8 11 -11 -12 -13 13 -15 -16 16 -18 -19 22 -21 27 23 -24 -25 -26 -27 -28 28 -30 -31
leaf_value=-0.036805278018485245 0.0081574900306963499 0.0067631391520995704 -0.0097976307816785863 -0.015088769271410256 0.0037578929126078648 0.014412584907037016 0.0031541047529741115 -0.013361886489963094 0.046254286217135364 -0.00069915992260935846 -0.015876373855980185 -0.030519433654639095 0.0072705913098710766 -0.0050818940386953976 0.0052541618247782659 -0.0047765967632623797 0.0067114510538442869 0.010805681547631774 -0.013926577107721711 0.010635453697944892 -0.0036953952902909512 -0.0072889431045532237 0.0036777305444499714 0.0092633096382789184 -0.00074243598953122893 -0.0032537987779988221 0.021595251611674429 0.0010356125450375986 0.014082316726624015 -0.001473481907185571
leaf_weight=86.999226570129395 421.70525589585304 8719.1889826357365 1673.8744637966156 3828.2191319167614 399.87197658419609 2462.6071150451899 4418.1456440240145 1296.1033883988857 17.735524982213974 4047.5087110251188 124.8659390360117 213.99433276057243 746.42376261949539 5984.5745858699083 2048.519504532218 3466.1595036685467 1941.5555949509144 669.06474284827709 421.73823238909245 4268.5858469009399 1125.9950456917286 7488.752562135458 818.83018356561661 322.63975462317467 2641.4394108057022 2228.9587997347116 657.57590425014496 1030.134553655982 808.4473430365324 1282.9225429147482
leaf_count=349 1697 35028 6768 15786 1601 9972 17689 5190 71 16210 500 857 2988 24008 8200 13882 7773 2680 1689 17103 4519 30196 3278 1295 10596 8928 2633 4141 3236 5137
internal_value=0 0.00250273 -0.00599704 -0.00878175 0.00068996 0.00742666 0.00190642 -0.000160258 -0.00133095 0.00383847 0.011605 -0.0246435 -0.00413436 -0.00371208 -0.000867253 -0.00217324 0.000609518 -0.00225544 0.00568853 0.00683038 -0.00138333 -0.00584911 -0.00230695 -0.00660527 -0.00425487 -0.00697036 0.0148501 0.00279657 0.00677241 0.00570667
internal_weight=0 46321.9 19341.2 12061.3 33857.2 12464.7 27039.2 13064.4 11882.1 13974.8 1182.31 231.73 6818 6731 11650.4 9601.84 6076.78 4135.22 9927.3 8686.73 7279.89 8233.1 1240.57 7811.39 4315.31 3525.06 1057.45 2964.58 1838.58 10002.1
internal_count=264000 185766 78234 48974 135629 50137 108284 52315 47581 55969 4734 928 27345 26996 46653 38453 24335 16562 39759 34792 29260 33188 4967 31491 17364 14118 4234 11896 7377 40165
is_linear=0
shrinkage=0.05


Tree=17
num_leaves=31
num_cat=0
split_feature=15 22 48 37 11 141 144 138 138 71 137 1 50 14 70 48 23 144 76 58 124 16 9 84 145 92 22 75 138 145
split_gain=356.375 128.314 113.379 69.5147 61.4373 55.1853 54.076 66.7745 68.7386 53.1163 71.3251 52.3402 50.9696 50.4706 48.1791 47.0612 46.2749 43.2244 41.3112 39.8597 38.1989 37.4054 36.6827 35.3462 34.793 34.3921 43.3684 34.3824 34.0613 38.173
threshold=0.054403878788842681 -0.0001042214707842958 -0.00025397376632121628 127.36787093733626 12584.505000000003 197846.00500000003 1.9996675000000002 8.5000000000000018 7.5000000000000009 0.16740993676907093 1.0000000180025095e-35 255.00000000000003 4.5985213698570976e-09 1.0009862500000002 9844499.8500000034 0.00067748688208151952 -0.001167475219288701 2.0000440000000004 27256184.955000002 0.30303012003943203 0.00024000000000007351 -0.020517058516711588 185758.39500000002 0.99775550000000013 0.0038791358664260339 -1.0000000180025095e-35 -8.4912455258826964e-06 -0.34585556606738604 13.500000000000002 0.0058281253988895151
decision_type=2 2 2 2 2 2 2 2 2 10 2 2 2 2 10 2 10 2 8 2 10 2 2 10 2 10 2 8 2 2
left_child=2 5 3 18 17 15 7 8 9 14 -11 28 -10 24 -4 27 21 25 22 -5 -6 -8 -1 -14 -13 -3 -27 -2 29 -9
right_child=1 4 6 19 20 -7 16 11 12 10 -12 13 23 -15 -16 -17 -18 -19 -20 -21 -22 -23 -24 -25 -26 26 -28 -29 -30 -31
leaf_value=0.0035635477459663211 0.0013957581127888201 -0.0018609132923090587 -0.0067894848416751828 0.015361203958622916 0.0019705884699126662 0.0031404275375733186 0.0087540560474392015 0.0034430253316438744 -0.032448912479390232 0.0084183835219490862 -0.015066238775225553 0.0099507253726758404 0.059949683238605937 -0.0054868246680482777 0.004387184628736834 -0.021323527655744398 0.00014597979231179012 0.0058360032063446256 -0.062701587080966181 0.0075016641773877849 -0.0040248190615809667 -0.0067741066790605632 -0.020201508417522537 -0.0093007655140627792 0.0012773096878788311 -0.015044435198358722 -0.0056838454463482299 -0.011185895134191654 -0.006011124031408817 -0.025201712869104321
leaf_weight=3031.5453517884016 616.78719115257263 2863.9434444606304 1427.2177318781614 2740.4924280941486 8262.4986786097288 703.07407033443451 5110.6640341132879 2727.5785971581936 343.6914297491312 424.40809467434883 1357.197188436985 3707.761062502861 19.469140410423279 909.67176176607609 2972.2121186852455 1043.6295285373926 3374.574926584959 794.7288261950016 24.63841301202774 3921.5773119777441 3915.9046850353479 419.67016683518887 171.56635737419128 344.00171646475792 1680.2193721979856 1784.5070096850395 4035.9596532434225 4539.0319063812494 2247.4258469045162 121.48759949207306
leaf_count=12194 2505 11528 5719 11073 33111 2818 20462 10924 1379 1700 5437 14847 78 3643 11905 4421 13512 3186 99 15819 15709 1680 687 1379 6728 7240 16237 18492 9001 487
internal_value=0 -0.0041987 0.00323262 0.00781692 -0.00230668 -0.0101352 0.00156501 8.72722e-06 -0.00387767 -0.00218822 -0.00947181 0.00235821 -0.0186446 0.00540676 0.000761365 -0.0116407 0.00476016 -0.00532519 0.00179453 0.0107347 4.27952e-05 0.0075757 0.00229063 -0.0055914 0.00724596 -0.00634657 -0.00855372 -0.00968076 -0.00140884 0.00222158
internal_weight=0 28560.1 37077.1 9889.82 21657.5 6902.52 27187.3 18282.3 6888.2 6181.04 1781.61 11394.1 707.162 6297.65 4399.43 6199.45 8904.91 9479.14 3227.75 6662.07 12178.4 5530.33 3203.11 363.471 5387.98 8684.41 5820.47 5155.82 5096.49 2849.07
internal_count=264000 115247 148753 39872 87011 28236 108881 73227 27597 24761 7137 45630 2836 25218 17624 25418 35654 38191 12980 26892 48820 22142 12881 1457 21575 35005 23477 20997 20412 11411
is_linear=0
shrinkage=0.05


Tree=18
num_leaves=31
num_cat=0
split_feature=15 22 144 21 144 48 4 63 12 71 71 94 79 11 127 144 131 145 1 8 1 70 57 76 15 39 12 60 71 136
split_gain=325.404 177.855 69.1154 68.6991 61.044 51.1032 49.7852 49.3949 48.2093 51.9425 46.3527 44.4867 54.6854 43.3242 40.7044 38.8618 47.5315 38.8551 38.3878 59.578 46.7517 35.8564 37.9466 35.809 35.5614 35.2928 34.2643 33.5469 33.4925 33.4303
threshold=-0.32079647599147193 -9.4601420774277317e-05 1.9993935000000003 0.00010056498390227795 1.9999935000000002 0.00063448472316444818 0.99724850000000009 0.060346762433852959 1.0001815000000003 0.012071737669528184 0.42951370901057923 1.0000000180025095e-35 -0.13070900617675521 4440.3700000000008 0.00030149999999995464 1.9992472500000003 0.0054034999999998954 0.0027142588066329143 265.00000000000006 1.0019285000000002 465.00000000000006 1177038.2900000003 807617.10458145698 229938884.67500004 -0.86669143104642221 5.9978558387531047 1.0011285000000003 -1.4884095570296203 -0.049196435901978024 0.00044549999999998763
decision_type=2 2 2 2 2 2 2 10 2 10 8 8 10 2 10 2 8 2 2 2 2 8 2 10 2 2 2 2 8 8
left_child=3 4 6 15 5 7 -3 -2 9 -4 13 24 28 -8 23 16 -1 26 19 21 29 -19 -23 27 -5 -16 -10 -11 -13 -20
right_child=1 2 8 11 -6 -7 10 -9 17 14 -12 12 -14 -15 25 -17 -18 18 20 -21 -22 22 -24 -25 -26 -27 -28 -29 -30 -31
leaf_value=0.0089230206494335298 -0.0096611364300436264 0.0057365926275937734 0.0082569622783198789 0.024050047985797469 0.0032992134286225516 -0.019430653219874191 -0.0096872800673358725 0.0040083811750362564 -0.0041044011242041944 0.0094891494172191573 -0.010785721934816903 0.017881598882645833 0.0093680371761954619 -0.0015505352168153962 -0.0074202125568627016 0.0046555121440729355 -0.0034114865014268831 -0.02270907991695318 -0.015788345023963771 0.021229295330360134 0.0051007942932572645 0.031058793239799223 0.0011723816363011211 -0.036730471322702435 0.010660462416628099 0.021336260334070725 -0.022679632459340293 -0.0013702485279728511 -0.0051455795195734667 -0.0035676484983670864
leaf_weight=987.60981261730194 6733.2465367019176 1381.3921533674002 3687.0499886572361 658.58766447007656 981.12967711687088 1201.336102604866 1972.9604042321444 732.79364883899689 738.63230197131634 822.38869605958462 2249.4331749081612 180.59614568948746 3422.6059231311083 9577.2691929787397 144.26068435609341 10189.881862565875 3734.3510835170746 149.56924617290497 800.19767202436924 425.04745788872242 1077.9548891186714 111.09342220425606 2416.2200690358877 66.726591050624847 2007.3133921474218 409.77265234291553 373.95423522591591 5259.2718623280525 1256.9878533780575 1861.3057157099247
leaf_count=3958 27302 5539 14775 2687 3962 5090 7981 2958 2962 3294 9048 727 13795 38440 578 40868 14966 599 3207 1704 4319 445 9693 267 8106 1642 1500 21077 5047 7464
internal_value=0 -0.00253943 -0.000817779 0.00488344 -0.00852145 -0.00985953 -0.00331333 -0.00831947 0.00124754 0.00349034 -0.00421925 0.00877779 0.00593074 -0.00294042 0.000868184 0.00291794 -0.000831694 -0.001682 -0.000272725 0.00383956 -0.00368392 0.00107834 0.0024861 -0.000301484 0.0139682 0.0138486 -0.0103478 9.82067e-05 -0.0022528 -0.00724188
internal_weight=0 43173 33524.5 22437.9 9648.51 8667.38 15181.1 7466.04 18343.4 10389.5 13799.7 7526.09 4860.19 11550.2 6702.42 14911.8 4721.96 7953.98 6841.39 3101.93 3739.46 2676.88 2527.31 6148.39 2665.9 554.033 1112.59 6081.66 1437.58 2661.5
internal_count=264000 173846 134534 90154 39312 35350 61008 30260 73526 41633 55469 30362 19569 46421 26858 59792 18924 31893 27431 12441 14990 10737 10138 24638 10793 2220 4462 24371 5774 10671
is_linear=0
shrinkage=0.05


Tree=19
num_leaves=31
num_cat=0
split_feature=48 33 22 144 48 48 44 1 43 21 44 29 144 55 10 69 136 137 138 141 37 48 128 58 52 48 141 89 82 131
split_gain=296.973 129.173 75.6128 66.3397 57.381 52.0073 43.8922 41.2383 38.5475 40.2912 45.4635 37.8092 37.4281 33.687 34.8922 33.622 32.9062 31.7672 36.7776 31.6629 31.6595 40.6988 33.8921 31.5884 29.4891 29.2757 29.2622 29.1742 28.2273 28.1387
threshold=8.1619811385368689e-05 4.105263157884302 -6.6131597153680275e-06 1.9990355000000004 0.0005125183299453099 -0.00069892166971368796 -0.026972548093089282 535.00000000000011 -0.00025014750166296723 3.1496913370604835e-05 -0.03569150632281632 0.00043311481471799035 1.9997445 74735.12000000001 0.99715750000000003 0.058477851434761703 0.013622500000000039 1.0000000180025095e-35 8.5000000000000018 72958.547500000015 134.95857976062024 -0.00018275189604956 0.00046000000000007152 -2.2995593184475767 1.0004214174821697 0.00018812396389462392 145031.89500000002 -0.00053437282705270917 0.99420350000000013 -0.016359000000000009
decision_type=2 10 2 2 2 2 8 2 8 2 10 8 2 2 2 8 10 2 2 2 2 2 10 2 2 2 2 8 10 8
left_child=1 3 4 13 17 -3 -4 11 -5 10 -10 -8 -13 -1 -15 29 -12 28 23 -6 -7 22 -22 -19 -14 -25 -20 -26 -2 -11
right_child=2 5 6 8 19 20 7 -9 9 15 16 12 24 14 -16 -17 -18 18 26 -21 21 -23 -24 25 27 -27 -28 -29 -30 -31
leaf_value=-0.034790671977243053 0.051415710291784093 0.014993003305018841 -0.013121237871998077 0.0041342479868852052 -0.017259775579644369 -0.00055689168272618906 -0.0082304148985279622 0.028114226514110205 0.013241424549760747 0.033604371307594715 -0.0024764689402287845 -0.0018511206856256857 0.012471582890156778 0.0067538650558478649 -0.0047117950998582766 -0.0027128172446200544 -0.015354476470073901 0.019416972066904514 -0.0059990222785315473 0.00018179041352002652 0.0081421516574362255 0.0023740446921371137 0.023190335864912995 -0.0072504518247830376 0.028732682823457673 -0.017855783823773449 0.0075748632739581073 -0.0029309718091748631 -0.00040445872905053322 0.0038139470523262825
leaf_weight=86.790308967232704 26.740334078669548 1583.2810966223478 723.98231774568558 10056.505273863673 1953.5550153106451 1906.8129030764103 1345.9483876526356 126.35543130338192 432.9701659232378 80.182145610451698 6592.2696923911572 3661.3160143643618 1038.8315094709396 746.34270380437374 5981.26081392169 2388.8661532700062 536.40640258789062 77.40832094848156 4593.7952899932861 300.19257436692715 5006.1853428333998 3544.4552208036184 404.39686091244221 1202.0450952798128 80.137918546795845 1418.7821705788374 434.60781908035278 788.79851387441158 1523.8691532611847 6943.4398365616798
leaf_count=349 108 6438 2910 40287 8248 7671 5404 506 1734 321 26407 14733 4161 2988 24008 9570 2149 314 18623 1213 20196 14199 1633 4843 321 5784 1743 3161 6162 27816
internal_value=0 0.00217135 -0.005212 0.000569714 -0.00778049 0.00652706 -0.00139799 -0.000192627 0.00168118 0.000227828 -0.00249002 -0.000709866 0.00110772 -0.00383912 -0.00343982 0.00241125 -0.00344549 -0.00604203 -0.00735274 -0.0149366 0.00529302 0.00653866 0.00926688 -0.0120619 0.00678621 -0.0129916 -0.00482582 -1.07819e-05 0.000489183 0.00415404
internal_weight=0 46290.2 19296.4 33845 11531 12445.1 7765.37 7041.39 27030.6 16974.1 7561.65 6915.03 5569.08 6814.39 6727.6 9412.49 7128.68 9277.25 7726.64 2253.75 10861.9 8955.04 5410.58 2698.24 1907.77 2620.83 5028.4 868.936 1550.61 7023.62
internal_count=264000 185766 78234 135629 47038 50137 31196 28286 108284 67997 30290 27780 22376 27345 26996 37707 28556 37577 31307 9461 43699 36028 21829 10941 7643 10627 20366 3482 6270 28137
is_linear=0
shrinkage=0.05


Tree=20
num_leaves=31
num_cat=0
split_feature=17 11 33 48 144 124 48 21 73 140 82 48 34 138 144 16 133 68 78 138 66 9 106 42 90 27 106 34 71 26
split_gain=270.645 98.8604 89.1824 71.6155 55.471 43.657 41.3882 40.5055 42.4937 35.3616 33.2486 32.5632 32.3906 41.0971 31.8346 32.0337 29.7309 29.6259 34.8135 29.254 38.2879 28.4782 29.7317 28.3572 27.5374 27.3608 27.3492 27.1979 30.6728 27.0126
threshold=1.1039597327891546 9446.215000000002 7.1340823970690588 0.00035819749428210324 1.9989022500000002 0.00023399999999990098 -0.00069892166971368796 2.7008291545530745e-05 -0.25556357392681128 8.5000000000000018 0.99848250000000005 -0.00025397376632121628 0.24693857150119305 8.5000000000000018 1.9996175 -0.79696692087207877 0.00043099999999990374 63730794.205000006 2515880.6750000003 9.5000000000000018 26022469.475000005 86994.670000000013 0.00081300000000000827 0.0060117750000000013 0.99748450000000011 -0.00012556689504953893 0.0032409999999999943 -2121195424492.9998 -0.54136885624528464 0.021857877895063046
decision_type=2 2 10 2 2 10 2 2 8 2 8 2 8 2 2 2 10 8 10 2 10 2 8 2 8 10 10 10 10 10
left_child=2 3 4 -2 10 12 -4 8 -6 14 -1 21 13 23 15 -10 -5 18 -12 20 -15 22 -9 27 -14 -11 -23 -3 -29 -21
right_child=1 5 6 16 7 -7 -8 11 9 25 17 -13 24 19 -16 -17 -18 -19 -20 29 -22 26 -24 -25 -26 -27 -28 28 -30 -31
leaf_value=0.0025631537964982479 -0.0045585824415817671 -0.024489498286741719 0.015818633306999993 -0.013965517013665952 0.010701903130351192 -0.0047169359659640477 0.0059197271187640555 0.014492408257617582 0.00097758105518550909 -0.031752250140185831 -0.0082293585156093842 0.0030669285734511182 0.0081108954971263036 0.037796831676173474 0.0027547182085149078 -0.0072130105596030147 0.0088110128993870822 -0.021314674984318001 0.0034960628192601951 0.0044734663748077653 0.00016987352454345055 -0.008757242219249832 0.0022565130971351067 0.012056337068684178 -0.0035672908888164725 0.012386583140815456 0.058971928508434371 0.018175350868280819 -0.0045680289706304901 0.035878836630362336
leaf_weight=1614.9997764229774 8042.9538872539997 153.4184263497591 1242.7184989601374 3472.4462824165821 863.85372847318649 5842.7228239476681 7025.943178832531 1729.5714363008738 2328.2973689585924 154.2717642635107 2108.2097500711679 10917.591834813356 566.92446465790272 160.97685167193413 4174.8423088341951 2449.8316975831985 149.44190767407417 294.86576034128666 904.69522614777088 3350.8630454987288 116.56512767076492 288.2384859919548 696.34695656597614 307.05611398816109 4605.90365485847 45.454254150390625 15.717844992876051 162.37609523534775 1703.5611341148615 69.897957354784012
leaf_count=6471 32455 620 5068 14454 3461 23519 28295 6989 9326 618 8466 43726 2282 645 16718 9812 622 1183 3632 13428 467 1155 2815 1230 18534 182 63 651 6833 280
internal_value=0 -0.0036411 0.00283422 -0.0071876 0.00151142 -0.00121335 0.00740746 0.002516 0.00010137 -0.000899134 -0.00331761 0.00428821 0.000614766 0.00310657 -0.000434945 -0.00322188 -0.0130257 -0.00618885 -0.00470853 0.00638186 0.0219938 0.00917248 0.0109802 -0.00210016 -0.0022874 -0.021707 -0.00525491 -0.00425275 -0.00258887 0.00511519
internal_weight=0 28705.1 36855.4 11664.8 28586.8 17040.3 8268.66 23664 10016.6 9152.7 4922.77 13647.5 11197.5 6024.71 8952.97 4778.13 3621.89 3307.77 3012.9 3698.3 277.542 2729.87 2425.92 2326.41 5172.83 199.726 303.956 2019.36 1865.94 3420.76
internal_count=264000 116020 147980 47531 114617 68489 33363 94865 40117 36656 19752 54748 44970 24154 35856 19138 15076 13281 12098 14820 1112 11022 9804 9334 20816 800 1218 8104 7484 13708
is_linear=0
shrinkage=0.05


Tree=21
num_leaves=31
num_cat=0
split_feature=15 22 125 21 100 77 144 1 50 1 39 2 90 146 52 50 63 127 72 38 144 138 138 146 90 144 49 130 1 6
split_gain=246.179 143.433 59.7957 56.4242 66.693 51.9024 49.1922 47.8039 45.5589 43.1692 54.6017 42.8121 40.5412 40.3835 41.4943 40.282 37.4115 37.0759 37.0036 36.093 37.5457 36.0788 35.9292 35.2278 35.1475 33.895 33.4313 33.3264 32.9464 31.9527
threshold=-0.32079647599147193 -0.00010163064621288094 0.00018300000000009978 3.1496913370604835e-05 1.0000000180025095e-35 -0.27644854152739012 1.9997535 505.00000000000006 6.9907359139582666e-10 495.00000000000006 4.104535394417602 25159605.055000003 1.0054875000000003 0.0089699999999999242 1.0011451747405034 3.4337993320643456e-08 0.15310007577719678 -0.00018850000000003583 145636610.81000003 5.1867651021236378 1.9993082500000003 8.5000000000000018 7.5000000000000009 0.010414000000000036 1.0014575000000001 1.9995342500000002 4296.4082451399972 0.0012420000000000211 235.00000000000003 0.99374200000000013
decision_type=2 2 8 2 8 8 2 2 2 2 2 2 10 2 2 2 8 8 10 2 2 2 2 2 10 2 8 8 2 8
left_child=3 5 6 7 11 -2 8 16 -3 10 25 -5 -12 14 -4 -7 19 -15 21 24 27 22 -10 28 -1 -6 -14 -21 -24 -23
right_child=1 2 13 4 9 15 -8 -9 18 -11 12 -13 26 17 -16 -17 -18 -19 -20 20 -22 29 23 -25 -26 -27 -28 -29 -30 -31
leaf_value=-0.0035718583756615152 0.00085437595165242125 0.0079844082120484154 -0.0058255497957524415 0.011427930968554822 0.0029054288411280021 -0.007651840869106967 0.0047685841749141519 -0.0098073234766498044 -0.0034049797463543302 0.018140026066386771 -0.0011541906018009624 -0.0063591474571731647 -0.055017140858425156 -0.012376480923919698 -0.021750355247604505 -0.016725152162494521 0.020066186715647902 -0.0010246305917713731 -0.037734049590845413 0.0082178848594176377 0.0078819136053249975 0.010053946140166603 -0.010037017627294071 -0.0057560052176338465 0.013795106680010719 0.01464112730126335 0.021008373465130528 -0.0056487560016679622 -0.052293387851309152 -0.00034427163532257688
leaf_weight=3206.8076652884483 1439.7516029328108 1394.2636094838381 2523.5134857445955 5539.4959107488394 1549.9737553149462 5978.2742588371038 6030.5728706866503 865.80446606874466 4423.5851771384478 442.35139074921608 3586.9321257919073 360.29943968355656 61.320553869009018 775.70307472348213 488.1870289593935 1537.9568662941456 293.0485707372427 9888.9297257214785 70.175213813781738 656.25101226568222 3215.3146702200174 821.70056354999542 79.175185471773148 237.43836477398872 320.44201873242855 1020.2389561384916 18.922318384051323 1275.3861355632544 110.51389867067337 7323.4361562728882
leaf_count=12849 5877 5586 10142 22414 6241 24374 24162 3467 17781 1775 14420 1454 246 3118 1964 6389 1176 39757 281 2630 12898 3294 319 956 1284 4113 76 5111 446 29400
internal_value=0 -0.00221019 -0.000733834 0.00424982 0.00646786 -0.0078425 0.00097502 0.00141227 -0.000607062 0.00304636 0.00197593 0.0103417 -0.0019405 -0.00329416 -0.00840691 -0.0095084 0.00249554 -0.00185032 -0.00152385 0.00190193 0.00457193 -0.00132832 -0.00474214 -0.0185905 -0.00199411 0.00756388 -0.0370893 -0.000937728 -0.0346558 0.000704725
internal_weight=0 43123.2 34167.2 22412.6 12579.5 8955.98 20490.9 9833.05 14460.3 6679.74 6237.39 5899.8 3667.17 13676.3 3011.7 7516.23 8967.25 10664.6 13066 8674.2 5146.95 12995.8 4850.71 427.127 3527.25 2570.21 80.2429 1931.64 189.689 8145.14
internal_count=264000 173846 137206 90154 50739 36640 82225 39415 58063 26871 25096 23868 14742 54981 12106 30763 35948 42875 52477 34772 20639 52196 19502 1721 14133 10354 322 7741 765 32694
is_linear=0
shrinkage=0.05


Tree=22
num_leaves=31
num_cat=0
split_feature=48 48 11 141 48 70 144 138 138 71 137 1 6 145 69 146 7 138 142 1 7 145 55 21 92 35 145 67 90 62
split_gain=226.323 97.6829 68.2683 64.3217 60.0041 53.7331 52.0617 57.7607 92.1359 71.7813 67.9605 56.5373 56.3356 62.0313 54.3124 48.9067 47.7304 47.1906 46.0008 44.3909 43.1142 40.1799 38.8845 37.8447 39.3929 53.9043 36.7538 36.4028 36.0322 35.8099
threshold=8.1619811385368689e-05 -0.00023056251308556903 14406.925000000001 80154.889999999999 0.0003049094701808068 874951.80000000016 1.9996050000000001 8.5000000000000018 7.5000000000000009 0.010118398940177744 1.0000000180025095e-35 245.00000000000003 1.0022595000000003 0.0027298956107257581 0.18400806179013421 0.0073974999999999467 1.0527020000000002 10.500000000000002 114588.85165879752 25.000000000000004 1.0001885000000004 0.0031845933747440352 385109730.58500004 4.4972589207176392e-05 1.0000000180025095e-35 0.61224489795375836 0.0036763092035030334 0.006263910231095072 0.99871150000000009 59786479.785000004
decision_type=2 2 2 2 2 10 2 2 2 10 2 2 8 2 10 2 8 2 2 2 8 2 2 2 10 10 2 10 10 10
left_child=1 3 4 5 -2 -1 7 8 9 20 18 29 -10 19 -12 17 26 -13 -11 -14 21 -3 -17 -7 -25 -26 -16 -22 -19 -9
right_child=2 6 -4 -5 -6 23 -8 11 12 10 14 15 13 -15 16 22 -18 28 -20 -21 27 -23 -24 24 25 -27 -28 -29 -30 -31
leaf_value=-0.012520744373121787 -0.0039644463281694603 0.030905391037371513 -0.00073202237737085042 -0.0020933445628983755 -0.011174684705368107 0.003601538253021631 0.0031683580682604663 -0.00061984136289691769 -0.03810672661003317 0.011917541450150672 -0.0058731360348890814 0.036053966275707387 0.056284335814867928 0.00035829500075330558 -0.039478711792710015 0.0024515032944599068 -0.0046113451492570756 0.02393648712164672 -0.0069593716230712775 -0.041504494778269896 -0.0030623760999888504 0.0042991988613187947 -0.04526620120453128 0.01501063042917773 0.011937221376527007 -0.0017534268246792023 -0.010259293732187773 0.013498902871013411 0.0035830862162554138 -0.01035399611825057
leaf_weight=312.34892889857292 7151.4246720522642 271.26703128218651 7267.5273801386356 1989.5659172832966 4837.2860767543316 2635.0764213055372 12790.926024928689 4693.2767720222473 277.95295351743698 797.43235972523689 3272.5909006148577 185.41205270588398 12.454054594039915 397.34623830020428 333.05809260904789 6754.8742730617523 295.3912398815155 293.27569796144962 542.14948180317879 170.28490199148655 1306.5464217215776 297.54899469017982 42.964681074023247 2873.0264333486557 1944.1731915473938 1140.8938330411911 158.99932867288589 444.75803633034229 841.02940927445889 1182.960487395525
leaf_count=1255 28867 1087 29260 7978 20107 10597 51233 18817 1119 3197 13126 743 50 1596 1336 27067 1185 1175 2174 685 5242 1193 172 11707 7883 4617 638 1784 3370 4740
internal_value=0 0.0018952 -0.00455575 0.00603466 -0.00687368 0.00785052 0.000619841 -0.000824361 -0.00405498 -0.00232736 -0.0054878 0.00115591 -0.0195983 -0.0107299 -0.00870988 0.00385991 -0.0204992 0.0126681 0.00427776 -0.03484 0.00502795 0.0169876 0.00214991 0.00859099 0.0107977 0.00687426 -0.030037 0.0011435 0.00884548 -0.00257945
internal_weight=0 46257.6 19256.2 10895.1 11988.7 8905.52 35362.5 22571.6 8577.78 7719.74 5399.62 13993.8 858.038 580.085 4060.04 8117.56 787.449 1319.72 1339.58 182.739 2320.12 568.816 6797.84 8593.17 5958.09 3085.07 492.057 1751.3 1134.31 5876.24
internal_count=264000 185766 78234 44037 48974 36059 141729 90496 34412 30962 21656 56084 3450 2331 16285 32527 3159 5288 5371 735 9306 2280 27239 34804 24207 12500 1974 7026 4545 23557
is_linear=0
shrinkage=0.05


Tree=23
num_leaves=31
num_cat=0
split_feature=48 22 144 9 144 90 56 22 127 144 135 71 72 100 142 19 138 142 61 1 137 125 50 145 72 73 22 29 57 48
split_gain=207.453 98.6609 64.7564 62.9789 50.7034 52.9875 64.7735 50.0126 49.7569 46.1419 43.698 42.73 36.3332 36.2515 34.7225 38.634 32.2153 32.2008 31.5743 31.208 30.2885 30.2028 32.8278 30.4005 29.8444 29.535 35.6506 29.0294 27.4757 26.317
threshold=-4.3308000130388097e-05 -0.0001042214707842958 1.9989997500000001 5742.1800000000012 1.9997535 0.9985075000000001 0.00070230739904848512 0.00013172907717561453 0.00016749999999998713 1.9996610000000001 0.001954999999999985 0.29363336534002621 229095235.06500003 -1.0000000180025095e-35 119328.28438930171 -0.010285873465458182 4.5000000000000009 90153.7563186935 3.6158459794122622 55.000000000000007 1.0000000180025095e-35 0.00018300000000009978 8.2604393664620866e-10 0.0028718460343487816 17933032.565000001 -0.11712680826211468 9.4759594407591228e-05 -0.024336995838001332 4353977.9787996421 -0.00011405824519456035
decision_type=2 2 2 2 2 8 2 2 8 2 8 10 10 10 2 8 2 2 2 2 2 8 2 2 10 10 2 8 2 2
left_child=2 9 14 7 5 6 -3 29 18 19 -8 12 21 20 -1 -16 -11 -15 -6 -2 -13 22 -7 -23 -21 -19 -27 -5 -17 -4
right_child=1 4 3 27 8 11 10 -9 -10 16 -12 13 -14 17 15 28 -18 25 -20 24 -22 23 -24 -25 -26 26 -28 -29 -30 -31
leaf_value=0.0020377349863833099 -0.020329701310873811 -0.0019293225460758918 0.0073546398548272043 -0.022857999354613572 0.0072833367961249312 0.0071665705791350886 0.01737676125275369 0.01501656569733599 0.005007281174727778 -0.013290198249038557 0.00040781778563882243 0.013926514470455734 -0.051218825483788012 -0.021897409154693362 0.044908650454752952 -0.013108901364691356 3.1130228100954325e-05 -0.020282376378000167 -0.0050436142405710701 -0.0100210974427037 -0.0059013066020581241 -0.011709212172215351 -0.0018094069136165769 -0.0030111631394004607 0.007525164289853223 -0.0077527273403393306 0.020014015251214066 0.0026506580465501368 -0.0023749618659593594 -0.00093562293521375463
leaf_weight=3063.00138682127 699.55458755791187 3154.2019599974155 5101.4849046170712 112.4308172762394 640.67158952355385 1195.4067752212286 934.92391858994961 1921.9680139422417 5443.3858280032873 563.47216708958149 638.50123362243176 234.77188421785831 38.181680113077164 679.23656049370766 36.898515701293945 987.88142600655556 2332.6973688453436 385.89980727434158 2745.9858797639608 3722.9272416234016 1072.36764767766 1389.6329069882631 6888.3865438401699 3625.2348796874285 259.21893244981766 842.86583037674427 133.97450767457485 13962.279775589705 1503.5205408632755 1178.4053690731525
leaf_count=12327 2917 12685 20566 451 2568 4790 3751 7843 21827 2307 2565 944 153 2742 148 3966 9533 1555 11006 15351 4318 5593 27697 14615 1067 3392 538 56037 6027 4721
internal_value=0 -0.00242291 0.00326884 0.00447635 -0.00113697 -0.00246219 0.00220425 0.00795898 0.00204677 -0.00752123 0.0104907 -0.00380037 -0.00251508 -0.00884187 -0.00154207 -0.00587896 -0.00256064 -0.0130039 -0.00271166 -0.0105899 -0.00234008 -0.00237311 -0.000482067 -0.00542142 -0.00887892 -0.00857104 -0.00394449 0.00244689 -0.00663114 0.00579899
internal_weight=0 37621.5 27867.9 22276.6 30043.6 21213.6 4727.63 8201.86 8830.04 7577.87 1573.43 16486 13136.8 3349.12 5591.3 2528.3 2896.17 2041.98 3386.66 4681.7 1307.14 13098.7 8083.79 5014.87 3982.15 1362.74 976.84 14074.7 2491.4 6279.89
internal_count=264000 151914 112086 89618 120739 85338 19001 33130 35401 31175 6316 66337 52848 13489 22468 10141 11840 8227 13574 19335 5262 52695 32487 20208 16418 5485 3930 56488 9993 25287
is_linear=0
shrinkage=0.05


Tree=24
num_leaves=31
num_cat=0
split_feature=48 15 141 108 46 144 13 144 48 141 1 146 14 71 7 138 88 131 83 141 53 49 138 6 141 55 133 80 20 83
split_gain=190.42 109.279 68.6395 61.3643 47.2437 47.001 44.9957 45.4325 37.2636 34.7536 44.7572 41.571 42.038 43.6384 38.2579 35.1889 34.2102 37.7709 36.635 32.7772 36.4085 36.3662 31.7697 44.7536 50.4149 36.551 31.2575 31.0069 29.8799 29.1743
